-22144 180608 157568 120704 387200 252416 176000 459776 293376 -128 -76544 413440 212736 -264064 -256 1536 -11008 -4736 156160 25600 -153344 189568 75904 -4096 -175616 189440 -256000 166400 -41088 84480 102912 165376 -512 30720 4864 13568 12544 22528 26880 25600 74752 -256 18432 18688 29440 -10240 -256 -256 256 512 10752 512 -256 51968 16896 0 27648 33536 -6656 18176 30720 45824 21504 -15360 -99072 32000 -40576 34560 -23296 -60544 -36352 -104704 -12416 -62080 73600 12672 -74240 30464 54912 66944 91392 -12416 100224 202624 212480 111616 22144 68864 -131456 6272 30848 7552 120320 80768 101888 65920 -54528 32256 46208 73984 117120 64000 87040 133120 27264 110976 126080 -168704 105856 43392 -6528 83072 18560 -12800 8576 -22784 45568 67072 153344 39296 66944 114304 124800 26368 -9728 -29184 85120 13824 101248 103424 -137984 -42368 -48384 -46080 47616 208384 -3200 215296 102912 43136 -38016 4224 245632 58368 -14592 195968 171264 -53632 34944 122496 29184 77440 149632 35456 114432 31232 71424 -896 291456 -11648 -126592 -23040 56320 74240 57472 -72576 102784 1152 25344 76544 182528 -86912 -109184 -14080 133888 32768 20480 39424 -512 1024 11008 8960 48384 -5120 3072 4096 1280 44800 6912 -22272 2048 32512 512 -9216 32512 68864 2304 -2048 768 256 2560 3072 -5376 0 -7680 3072 34304 -8192 -3072 58112 73984 1536 68352 60160 4352 1024 48128 -14848 5632 -6912 -512 -256 55808 -2304 -2816 2048 256 69888 41472 1024 69632 -3584 0 108800 3840 32512 -512 1536 1792 43520 38400 -1536 1792 51968 13056 5120 6144 30208 0 53504 -1792 47616 10752 50176 3072 6656 24064 -2048 40192 0 39168 -1024 -10752 2816 58880 -6144 3584 46336 62976 -256 55552 3072 -233216 7680 -120832 -23040 -60416 -113664 -33024 -81408 -66304 39680 119296 -91136 -114432 222208 230400 69120 211968 -32768 -130560 -9728 -209664 4352 -91392 -52736 -124928 108032 32000 79360 -90112 209664 69376 1536 121600 75264 75520 139520 31488 -11520 -74240 8960 33792 120576 132864 88320 119040 -4608 66816 21248 7168 186112 -5632 133888 16128 105216 31488 2304 -24064 46592 -29696 39424 20992 40192 -5120 -23808 12800 109312 115712 27136 232448 143872 202240 82688 19968 -47360 -24064 77312 66816 117760 63232 -15360 49664 77312 32768 44032 21504 10496 43776 133888 -30720 21248 56064 204032 23552 154112 -8704 -30464 88320 162560 91392 -1792 69888 -13568 55552 -28928 36864 71424 20736 99840 39168 51200 29440 95744 81408 19456 72704 92416 4096 34816 9984 62976 100352 104448 30976 -4352 -72192 -18944 36608 94976 1792 -45568 118528 36352 -16128 60160 306432 4352 204800 141824 -26624 107776 24320 102656 75776 -9472 145408 -49920 101632 75520 -22528 61184 48896 -27648 69120 -29184 166400 -65280 10240 -69120 45568 92160 -4864 117248 110848 19200 201472 116992 -256 50944 376832 22528 53248 14336 -14336 0 227328 112640 20480 14336 241664 163840 110592 296960 2048 -8192 -6144 18432 180224 0 210944 -98304 -34816 -16384 124928 499712 14336 -26624 14336 122880 -139264 49152 -14336 241664 34816 -30720 -22528 -26624 59392 40960 292864 -83968 -135168 137216 -8192 38912 32768 100352 323584 28672 135168 198656 49152 -4096 0 188416 126976 305152 215040 22528 6144 2048 212992 -30720 10240 65536 225280 -165888 -43008 -38912 2048 69632 169984 -86016 34816 43008 14336 -12288 -8192 79872 141312 28672 73728 -34816 -149504 288768 -32768 79872 83968 102400 73728 -8192 16384 -40960 38912 28672 57344 -30720 -94208 223232 57344 16384 38912 2048 -4096 10240 67584 0 92160 -16384 907264 239616 -47104 -4096 -12288 40960 53248 38912 16384 38912 188416 12288 88064 151552 40960 -24576 -137216 10240 75776 79872 -77824 2048 -30720 8192 -28672 26624 114688 223232 -75776 -26624 -270336 75776 -110592 22528 -46080 -56832 6144 -35328 -111616 196608 304128 -58880 -99840 141824 -185344 30208 158720 -223232 -177152 -188416 111616 -206848 205824 -3584 -98304 161280 -347648 110592 551680 -64000 604160 608768 244480 212992 367104 299520 385792 210688 89600 392448 158720 5376 91648 -2560 331008 320768 62208 257024 137728 -158208 226048 14080 958720 230912 355328 93696 -531200 -122368 38400 152832 346624 157952 239616 66304 784896 472576 657664 96768 229120 -246016 -265728 -96000 -229120 14848 950272 245760 -45312 616448 -136192 320256 168192 -368640 570880 40192 585728 47872 601344 221184 433664 551168 516864 363008 237824 330240 371200 692224 202496 -69120 256512 1028352 186880 307712 -88064 -164352 285440 456192 -54272 192768 -18432 705024 675072 -150016 -154368 477440 211968 -331008 1253120 -376320 -190464 1536 270080 55808 -214272 644096 101120 217856 518912 -87552 -1280 536576 182528 158464 -260096 13312 334592 519680 -28928 297216 476160 -30464 -168448 264448 104704 347648 740608 -172032 580608 242688 312832 2816 207360 936704 258816 179968 93440 144384 179968 201728 145152 478208 427520 268032 332288 96000 -175360 -33536 0 794880 86272 -169216 112128 320256 384000 -7168 191488 446464 184320 0 314368 0 351232 206848 0 -4096 219136 -1024 212992 0 -29696 5120 201728 -1024 183296 188416 332800 -11264 -3072 1024 49152 284672 0 -6144 340992 237568 28672 -6144 -5120 -47104 -26624 317440 290816 -2048 194560 153600 -5120 315392 -27648 262144 626688 409600 -9216 -26624 -66560 190464 193536 -1024 -26624 0 7168 468992 -50176 2048 199680 -61440 18432 10240 -6144 269312 -14336 258048 0 2048 278528 -198656 5120 -1024 3072 -21504 218112 196608 4096 121856 293888 30720 28672 1024 398336 1024 -119808 -1024 -90112 -5120 -5120 221184 392192 0 -10240 51200 126976 0 24576 291840 0 98304 226304 4096 -1024 -26624 -7168 130048 4096 -66560 -50176 279552 2048 233472 -33792 84992 -128000 338944 6144 391168 37888 319488 12288 -118784 392192 8192 173056 114688 -187392 243712 7168 -12288 -76800 1024 192512 3072 320512 -22528 1024 0 -1024 2048 9216 -27648 354816 461312 -780288 256512 -51712 -444416 -522752 -212992 144896 -630272 407040 543232 439296 363520 -558592 -107008 421888 -246272 589312 168448 -147456 42496 -172032 -216576 -316416 37376 -77312 -683520 -123392 -641536 -360448 75264 404992 243712 442368 -69120 144896 1189888 863232 886784 -125952 286208 1046016 327680 336896 502272 188928 -392192 267264 730624 82432 1170944 1608192 -239104 516096 1144320 943616 870400 117760 -46080 545280 139776 -178688 47104 48640 81920 -58880 450560 708608 713728 946176 565248 1136128 26112 836096 133632 609280 894464 147456 565760 897536 10752 343552 384000 343552 385536 637440 1251840 635392 84480 809984 -13824 976384 -208896 672768 495616 -325632 799232 443392 619520 252416 410624 900096 -674816 294912 232448 202240 1041408 446464 857600 367616 512 2048 79872 98816 -206336 198656 495616 225792 515584 -40960 1288192 161792 -741888 -10240 -263680 24576 111104 125952 1307648 368128 1158656 52224 349696 257536 553984 309760 -31232 1199616 545280 312832 248320 -187904 767488 468992 442368 995840 174080 125440 581120 509440 441856 380416 995328 -50688 341504 -961536 658944 -109056 179712 834560 412672 415744 263680 782848 903680 676864 225280 217600 245760 147968 49664 100352 247808 488448 1133056 1238016 -89088 107520 1169408 969216 701440 1258496 1433088 818176 405504 1126912 135168 394240 425984 1205248 310272 280576 1056256 679936 -9728 281600 540160 35840 466432 502784 169472 84480 293888 78336 801792 108032 655360 1638400 -456192 109568 -397312 120832 205312 134144 400384 144896 1408000 552960 1228288 813568 747520 978432 254976 -26624 8192 -34816 -20480 -10240 79872 -8192 2048 86016 75776 43008 -8192 -36864 -24576 2048 6144 10240 2048 4096 14336 -24576 -10240 133120 229376 -16384 63488 -4096 -12288 -2048 178176 26624 -8192 16384 14336 47104 77824 -10240 18432 55296 12288 208896 143360 20480 4096 51200 8192 2048 -24576 0 0 -12288 28672 4096 0 169984 -20480 190464 10240 149504 10240 -16384 -4096 -4096 -6144 40960 258048 12288 217088 135168 178176 8192 -26624 141312 71680 94208 -4096 40960 -24576 157696 2048 -2048 165888 -4096 -12288 24576 194560 -137216 4096 51200 -12288 -55296 -124928 -2048 -32768 100352 75776 28672 -159744 -4096 -4096 -2048 2048 53248 -2048 -10240 -157696 225280 -6144 129024 -28672 -104448 2048 -4096 288768 165888 110592 159744 0 26624 -14336 12288 63488 -12288 -10240 -2048 -14336 -43008 24576 -14336 -49152 6144 -34816 -6144 24576 307200 14336 243712 -34816 32768 4096 106496 -4096 270336 184320 6144 -28672 -20480 20480 2048 0 4096 198656 -22528 10240 -12288 -241664 -36864 194560 -6144 -2048 30720 71680 92160 2048 -16384 51200 -6144 -114688 12288 -16384 172032 -2048 0 20480 94208 -16384 272384 -81920 -34816 -6144 -20480 45056 6144 28672 -2048 49152 409600 -6144 -6144 278528 256000 4096 153600 -877568 -233472 -131072 693248 62464 -538624 361472 -533504 290816 221184 -178176 7168 581632 -442368 -98304 -72704 154624 -541696 1346560 1312768 164864 372736 -1465344 -37888 309248 70656 647168 1263616 -954368 314368 131072 330752 504320 547840 935424 558080 88064 -48128 193536 785920 -197120 306688 629248 272896 1255936 33792 433664 611328 334848 44544 198144 745472 413696 -69632 580608 164352 322048 -242688 803328 -39424 385024 140800 -159232 309248 -69632 359424 191488 51200 140288 289280 312832 -502272 215552 162304 516608 105984 -164352 281088 438784 741376 19968 240128 -115200 168960 67584 540672 90624 908800 701440 97280 55296 410112 657408 762368 94208 -90112 358400 445440 -202240 225280 691200 208896 126976 484864 56320 6656 365568 412160 566784 602624 -109056 -134144 7680 175616 -386048 -301568 -9728 35840 1178624 632832 212992 553984 417792 227840 78848 3584 -307200 -134656 395776 331776 673280 -65536 187904 199168 67584 734720 233984 187392 -194560 669184 891904 -251392 286720 -33280 -234496 229376 776704 929792 698880 123904 -568832 510464 119296 390144 -59904 0 976896 -35328 470528 -168960 292352 28672 238592 -132608 -356864 -1536 484864 416768 368128 1479680 -75264 486912 8192 -512 -257024 140800 279552 211456 -75776 251904 1244160 343552 773632 -1536 37888 246784 164352 88064 287744 -127488 625664 -9216 104448 364032 493056 243200 937472 45056 408064 130560 811520 -12288 913408 114176 -412672 118272 321024 49152 -862720 -191488 -219648 211968 78336 164864 45568 159232 114688 -47616 138752 189952 -141824 353792 413184 8192 28672 -258048 147456 401408 348160 0 225280 -20480 -49152 8192 24576 430080 -16384 24576 -4096 -143360 -69632 155648 356352 -4096 -139264 8192 49152 -155648 -40960 159744 20480 -131072 565248 208896 -8192 16384 151552 8192 -16384 12288 -122880 393216 28672 -4096 -28672 -32768 -24576 -32768 102400 -69632 -53248 131072 176128 135168 -184320 303104 40960 -20480 -118784 610304 20480 4096 176128 -65536 761856 688128 36864 237568 -12288 -4096 266240 131072 4096 -32768 0 135168 -24576 -221184 -98304 77824 491520 16384 -16384 -24576 16384 0 4096 -36864 200704 -139264 57344 -24576 0 4096 73728 -118784 53248 28672 -172032 270336 237568 16384 -4096 159744 -40960 -135168 -73728 -65536 106496 -4096 241664 -69632 -114688 -20480 212992 16384 0 32768 8192 53248 -217088 12288 462848 28672 -40960 28672 -147456 24576 -77824 155648 28672 430080 24576 0 8192 -212992 8192 -61440 0 -167936 -4096 -475136 323584 45056 -73728 28672 286720 -4096 8192 -12288 249856 28672 -36864 -4096 131072 184320 45056 229376 -49152 212992 20480 -32768 77824 -28672 20480 -53248 -73728 163840 12288 12288 -4096 -131072 40960 -8192 8192 200704 -77824 4096 28672 -20480 -106496 -126976 200704 -45056 278528 0 -8192 192512 20480 118784 49152 -4096 -32768 -163840 0 791552 17408 -261120 591872 598016 -877568 -340992 -1106944 -762880 1394688 209920 1196032 691200 665600 978944 93184 -1969152 80896 -528384 2304000 706560 1421312 -417792 1080320 182272 -537600 -1143808 1224704 -187392 -1837056 -138240 -525312 82432 216320 204800 372736 1094912 563200 -101120 209408 481792 271104 52224 98304 445696 522240 240640 956160 400640 -59392 223232 865280 141568 414208 567296 37632 117504 908800 284928 -8960 -30976 276736 13056 339456 454912 -436992 103424 487168 -42752 -39424 -63232 963328 980224 173824 250624 686848 -43520 626688 171008 262656 423168 315136 164608 -126720 211200 76800 252672 289024 465152 111360 13056 141568 611328 529152 116736 512 156928 103680 172288 199424 225024 11776 -400896 25856 141056 429056 171264 399104 578816 387840 658688 -39168 141824 132608 98048 715264 1002752 409088 231936 65024 109824 99072 -41728 139008 519168 36352 577792 686080 183552 359936 264960 527872 -55296 389888 -565248 257280 -53760 519680 92928 346368 48384 37120 313088 495104 243968 375808 223232 67584 177152 345088 194560 185088 76032 107008 276224 284416 80384 318208 577280 261632 318976 29952 116992 -24576 -232192 9984 -85504 321024 299776 385536 383232 425728 282880 372480 505856 61440 -69888 453376 969984 197376 -79360 591872 -464384 623104 386048 -105472 -465920 92928 589056 172288 381952 222208 73216 306432 317696 151552 186880 400128 85504 283904 39680 54016 719872 422144 -367616 359936 834560 -224256 379136 241152 -71168 210176 503040 368640 403456 55808 456448 752384 125952 535552 79872 336128 -61184 -651520 8192 589824 737280 -1024 1224704 579584 570368 504832 655360 617472 523264 672768 778240 604160 643072 -2048 423936 4096 715776 -248832 -7168 478208 461824 4096 387072 64512 837632 601088 586752 -2048 555008 -27648 -27648 -19456 11264 342016 655360 -2048 578560 1108992 795648 -9216 -6144 -71680 9216 -35840 -5120 -2048 1024 744448 -23552 555008 45056 365568 519168 420864 574464 -29696 661504 577536 -343040 -32768 457728 1024 666624 -17408 590848 0 -4096 382976 -43008 -25600 15360 702464 15360 714752 -8192 246784 392192 4096 638976 -11264 -7168 3072 -32768 -22528 592896 2048 607232 12288 461824 602112 -124928 1024 173056 -36864 -16384 -37888 -6144 23552 7168 -209920 -2048 565248 -4096 8192 493568 883712 -43008 561152 529408 797696 683008 677888 -123904 484352 433152 10240 447488 -10240 506880 -1024 594944 483328 422912 590848 964608 635904 346112 -2048 16384 -2048 3072 658432 -17408 48128 -1024 546816 -113664 -17408 552960 -33792 -2048 -9216 -3072 800768 -155648 -23552 -2048 -94208 1024 -68608 539648 -14336 476160 514048 269312 -4096 657408 535552 569344 -65536 -5120 3072 -11264 6144 -2048 688128 516096 614400 456704 848896 -2048 611328 803840 -33792 13312 -7168 -17408 662528 569344 0 617472 -3072 615424 699392 -7168 -13312 550912 -14336 713728 -9216 -40448 118784 -125952 -146944 -405504 225792 -237568 -107008 -223744 443904 -746496 834560 -51200 -545280 437760 196096 -79872 -31232 -183808 253952 -81408 250880 403456 347648 54784 -90112 100864 -429568 249344 -425472 29184 199680 727552 -54272 56320 -365568 35328 -216064 -150528 -250368 985088 -99328 -559104 38912 -481792 -230912 -38912 -51200 29696 -53248 -289280 5632 140800 -7168 -81408 -188416 464384 -687616 529920 -439296 -422400 -419328 699392 467456 541696 446976 119808 248832 1021440 248832 662528 131584 343040 -16896 306176 452096 441856 486400 199680 331264 330752 117760 592384 404992 237568 56320 142848 18944 68096 349184 108544 424960 211968 425472 77312 617472 632832 152064 266752 -56320 281600 527360 107008 -45056 48128 475648 206848 1524736 82944 257536 267776 162304 59904 320512 211456 717824 501760 -19456 144896 240640 -11776 213504 532480 674816 210944 160256 138240 425472 265216 109568 876032 281088 70656 791552 518656 264192 104960 83968 151552 1273856 346624 852480 516096 -27648 86016 232960 445952 400384 711680 103936 25088 105984 55296 638464 506880 184320 163840 215040 145920 -224768 -39424 94720 168448 -132608 -33280 400384 386048 348672 744960 927232 696320 414720 56832 180224 362496 247296 -147456 371200 118784 669184 611840 520704 446464 141312 -99840 456704 282112 -23552 91648 202752 749056 -297472 207360 423936 13312 177664 172544 68096 28160 209920 258048 135168 226304 68096 812544 270336 555008 382464 93184 86528 225792 -6144 130560 326656 154112 -38400 68096 2560 674816 227840 379904 63488 302592 235520 138752 180224 246272 173568 734208 297984 468480 368128 598528 -93184 118272 286208 895488 275456 280064 246272 782848 339456 348672 -36864 474112 387584 124928 386560 722432 102400 405504 266752 254464 1321472 165376 78336 592896 624128 44032 148992 116224 422400 114688 257024 1084928 456704 73728 426496 437248 328192 146432 83456 -69632 824320 928768 230912 97792 674816 57856 765440 406016 6656 54272 381952 92160 322560 701440 460800 105472 188928 353280 120832 222208 525824 455680 207360 137216 175616 796672 555008 70656 138752 73216 135680 432128 189952 304128 100352 879616 77312 -34304 273408 353792 366080 348672 248320 610816 -35840 0 9728 194560 186880 258560 169984 119808 175104 26624 279552 -8192 339456 554496 31232 347648 790016 234496 229376 128000 -60416 1116160 29696 695296 509952 591360 163840 49664 792576 488960 177664 177664 127488 178688 382976 231424 882688 193024 46080 62464 394240 164352 214016 685056 225792 189952 138240 115200 144384 305664 722432 37376 167424 320512 620544 442368 483328 164864 51200 37376 313856 217088 199168 93184 240640 731648 98816 185856 66048 342528 296960 -151040 357376 55808 1159680 390656 41472 361984 365568 125440 264704 239616 753152 213504 222208 671744 367104 99840 89600 788992 24576 -25600 262656 -69120 241152 -5120 332800 292352 233984 243712 -203776 586752 329216 129024 216576 -18944 76288 127488 424448 489472 285696 169984 140288 140288 -44544 201216 276992 254976 135680 346624 110080 7680 355840 196608 202240 319488 637440 328192 -17408 11776 113664 -53248 -118784 0 32768 -24576 16384 0 221184 -4096 -8192 0 241664 28672 -184320 -114688 0 0 -28672 -4096 -57344 278528 249856 -20480 192512 -49152 -241664 -40960 12288 4096 -28672 114688 8192 -4096 176128 -16384 -36864 258048 40960 4096 249856 -16384 12288 -4096 20480 -4096 16384 221184 -49152 135168 0 0 -69632 229376 49152 4096 0 180224 -12288 -16384 -20480 368640 36864 -36864 73728 -16384 139264 12288 290816 -8192 20480 0 28672 217088 12288 -61440 53248 -20480 4096 -28672 4096 -40960 20480 -69632 32768 110592 151552 155648 -49152 233472 -90112 49152 200704 233472 196608 -12288 77824 8192 299008 270336 49152 20480 208896 -57344 16384 0 4096 151552 4096 -24576 -163840 258048 0 73728 20480 -98304 106496 159744 -81920 12288 -20480 8192 -36864 233472 -61440 -36864 323584 16384 77824 -8192 -311296 -8192 -221184 -208896 -40960 4096 36864 36864 212992 -8192 200704 4096 4096 -20480 45056 -4096 -8192 -12288 -4096 57344 -294912 352256 -28672 -4096 81920 -20480 0 -4096 -57344 258048 98304 184320 16384 102400 8192 -4096 -73728 24576 69632 0 -94208 200704 -20480 28672 -28672 49152 229376 -12288 237568 278528 -12288 -53248 327680 4096 299008 32768 -12288 28672 32768 -16384 491520 -24576 -28672 40960 471040 69632 -4096 0 -98304 90112 425984 81920 16384 -20480 0 -61440 -4096 0 28672 -12288 24576 -36864 -12288 266240 245760 167936 167936 -32768 147456 4096 118784 151552 -28672 167936 -16384 -20480 4096 397312 -77824 -73728 94208 45056 -200704 -32768 -57344 -57344 28672 270336 8192 24576 290816 200704 32768 -40960 147456 28672 12288 -4096 -49152 45056 -32768 4096 212992 -102400 94208 -20480 -28672 -12288 180224 -8192 184320 122880 12288 -40960 323584 20480 20480 -45056 -8192 225280 40960 -69632 -4096 -180224 -90112 8192 -8192 24576 16384 147456 8192 12288 -8192 4096 102400 -36864 159744 0 0 -114688 4096 151552 77824 -65536 192512 -73728 -36864 28672 102400 331776 -8192 -16384 212992 204800 12288 16384 12288 303104 53248 4096 -16384 69632 217088 36864 -12288 126976 241664 348160 229376 -8192 -8192 4096 212992 360448 -49152 -20480 159744 -45056 69632 40960 -16384 -20480 110592 0 8192 -32768 4096 -8192 36864 12288 32768 -20480 -73728 -4096 139264 28672 0 16384 -65536 -40960 188416 -163840 -49152 20480 36864 -8192 -12288 -16384 204800 -24576 356352 159744 -24576 229376 348160 8192 0 262144 180224 20480 -20480 0 212992 -12288 200704 -24576 49152 -32768 -188416 110592 -4096 20480 0 233472 163840 11264 -137216 -8192 68608 104448 -305152 400384 -358400 7168 419840 -301056 -118784 -37888 99328 -159744 20480 156672 -60416 37888 -243712 229376 -70656 -116736 205824 710656 136192 757760 137216 -392192 192512 -112640 386048 -116736 328704 -1089536 -97280 434176 -15360 358400 -362496 204800 -179200 -45056 -106496 274432 -91136 105472 420864 82944 -49152 -23552 304128 174080 -386048 254976 578560 146432 156672 -12288 643072 718848 -355328 -18432 -57344 -137216 -98304 -59904 -28160 16384 85504 393216 -317440 337408 -50176 53760 440320 116736 -82944 -22528 419328 814080 9728 -269824 138752 -39424 472064 144384 420864 -14336 181248 106496 65536 -67584 131584 178688 317440 236032 288768 84480 1112064 -195072 44032 99840 277504 589824 62976 -57344 157696 62976 71680 139776 429568 403456 339968 234496 95744 325120 137728 276480 40448 478208 -149504 134656 184832 185344 133120 310784 306688 124928 96256 123904 571392 10240 -45568 253952 630272 590848 256000 810496 -197632 221184 522240 152576 408064 115200 -302592 227328 52736 1199616 -64000 -188928 173056 81920 -35328 70656 418816 -79872 908288 -408576 458240 265728 512 277504 3584 -176128 177664 284160 -3584 233472 106496 139776 196608 77312 216576 175104 186880 194560 -28672 1890304 218112 275968 63488 88064 515072 39936 139264 480256 40448 594432 19456 -87040 279552 121344 6144 505344 160768 77312 65536 -100864 162304 87552 225280 81920 166400 126976 80896 79872 338432 636928 -56320 -147456 -5632 165376 358912 44544 557056 324096 330752 107520 196096 -30208 740352 271872 -110592 298496 -124928 -621568 152064 60416 389632 294912 179200 201728 433152 123392 45056 -53760 84992 259584 229376 -66560 235520 200704 306688 209920 285696 135680 -39936 414208 331776 187392 86528 171008 44544 506368 108544 233472 171008 114688 898048 138752 512000 39424 131072 209408 308736 930816 36352 -84992 151040 346112 -100864 -179712 -95232 -325632 -45056 287232 210432 145408 156160 302592 231424 930304 301568 592384 258560 -58880 188416 -86528 49152 131072 136704 145408 111616 135168 187392 168448 35328 -247808 -113664 361472 272384 -69120 47616 432640 52224 195584 -257536 -8704 240128 328192 -174080 281088 24064 182272 129024 76800 132608 204800 14336 200192 -79872 202240 239616 161792 156160 71168 190464 299520 214016 -29184 -232960 -4096 -65024 592384 -23552 219136 274944 135680 24064 206848 -57344 115712 76288 325632 557056 309248 39936 111104 440832 390656 216576 368640 39424 42496 -151040 208896 394240 152576 369152 188928 248320 63488 -22016 -512 281088 374784 733184 -1536 239104 76800 93696 12288 245760 202752 -2560 211456 -59392 -35328 546304 -53248 376320 -126464 37376 73216 357376 -1024 -19968 179712 428544 -26112 209408 -38912 60928 130560 -156160 -147968 48640 332800 23552 408064 74752 -159232 197120 29184 -195584 333312 330752 388096 -294400 219136 192512 166912 290816 159744 548864 -49664 243712 436736 291840 172544 432640 243200 232960 21504 105984 -369152 417280 -41984 828416 402432 -87040 -31232 89088 -51200 45568 38912 142336 -167936 251392 700416 663552 345088 166400 147968 194048 239616 -403968 65536 16384 0 45056 -16384 143360 -139264 -45056 20480 -32768 131072 -8192 -32768 -12288 45056 -8192 -32768 106496 24576 -16384 -73728 -20480 4096 4096 118784 -4096 81920 24576 126976 94208 -16384 110592 40960 24576 -8192 20480 -8192 81920 -28672 -24576 -61440 81920 12288 86016 12288 24576 0 -4096 0 118784 12288 16384 147456 -36864 -24576 -24576 -8192 4096 -12288 8192 -16384 -4096 131072 -4096 102400 -4096 69632 53248 -4096 -32768 -53248 -32768 -8192 122880 -24576 -16384 -8192 -4096 -8192 -12288 -106496 86016 12288 -4096 -45056 36864 32768 -16384 36864 151552 12288 299008 -12288 -20480 -16384 0 94208 -139264 -45056 4096 114688 61440 -4096 69632 -73728 40960 45056 -16384 102400 -8192 -24576 61440 -24576 -8192 188416 122880 -45056 -28672 28672 32768 114688 -53248 -28672 81920 8192 114688 -4096 90112 -4096 8192 86016 12288 -4096 106496 0 36864 90112 94208 -8192 118784 139264 77824 -36864 90112 8192 86016 90112 -20480 69632 -24576 94208 -40960 4096 155648 36864 114688 73728 122880 -16384 12288 49152 65536 -57344 -8192 0 -4096 98304 -8192 -32768 40960 102400 86016 131072 53248 73728 -20480 77824 -20480 -32768 4096 4096 98304 -8192 73728 61440 126976 81920 -40960 -20480 4096 -8192 77824 40960 -12288 90112 -16384 16384 4096 -8192 -20480 -8192 4096 77824 -61440 131072 0 -8192 -12288 77824 -49152 -16384 -20480 69632 -28672 -73728 0 40960 139264 -307200 -4096 49152 122880 12288 -28672 94208 90112 -4096 106496 61440 -8192 -16384 -24576 81920 0 200704 -73728 -4096 -45056 0 102400 106496 0 126976 -118784 12288 -24576 16384 20480 -28672 20480 102400 -40960 57344 36864 -118784 -28672 106496 73728 -16384 135168 -24576 114688 94208 176128 65536 -94208 -4096 -4096 -20480 -4096 -8192 69632 -36864 118784 102400 114688 102400 -12288 -98304 -8192 -20480 12288 -4096 -4096 -20480 40960 28672 0 49152 -8192 -20480 -4096 -40960 0 -61440 0 20480 -73728 12288 8192 -114688 12288 -20480 28672 -12288 65536 65536 4096 118784 -16384 28672 4096 0 49152 -28672 45056 -8192 131072 -8192 49152 4096 126976 16384 -53248 -69632 -102400 69632 40960 65536 126976 114688 12288 4096 -106496 8192 -32768 114688 90112 147456 57344 -20480 8192 -24576 -98304 40960 40960 94208 -20480 -16384 49152 -8192 -12288 -4096 0 139264 -69632 -12288 184320 94208 -28672 8192 -20480 -32768 24576 -8192 184320 -118784 16384 -49152 12288 -16384 94208 102400 98304 110592 -24576 -32768 8192 131072 86016 -16384 -110592 -69632 -16384 292864 292864 -1886208 116736 -1073152 -350208 1724416 -172032 -352256 1839104 -591872 -1648640 -299008 -1355776 -8192 104448 1583104 -1980416 2078720 -1595392 1542144 86016 722944 -260096 1075200 1499136 4096 333824 -1480704 1740800 -1239040 860160 4096 444416 280576 -542720 -434176 -917504 782336 344064 -182272 -327680 -251904 378880 -354304 1087488 -100352 1323008 -880640 -4096 -1095680 -792576 311296 -1038336 382976 1286144 763904 1267712 -151552 -1308672 2146304 1120256 600064 -782336 -59392 142848 22528 149504 236544 239104 268288 -93696 614400 -54784 125440 -494592 212992 265728 648192 98304 264192 232960 75264 286720 192512 208896 60928 253952 -8704 104960 284672 85504 -24064 583680 609280 -51712 -29184 208896 -140288 367616 317440 146944 144384 170496 -133632 4608 -52224 -164352 124416 103936 2560 -322560 702464 174592 -292864 -11776 415744 1139200 67072 202752 242688 364032 -65024 129536 76288 -537600 -214528 -11264 97792 -414720 72192 231936 175104 526336 -185344 -86016 316416 53248 19968 211968 38400 307712 43520 138240 435200 -179712 143360 -61952 387072 194560 -142336 958464 232960 -93184 204288 25600 28160 93184 -42496 62464 270848 171520 129536 281600 79872 455680 -142336 131072 180736 295424 17920 39936 30720 158720 115712 76288 -512 330752 399872 3072 -164352 -174080 182784 303616 349696 134144 527872 684544 75264 202752 59904 151552 381952 155648 527872 196608 62464 331264 268800 22016 256512 -355328 275968 176640 385536 96768 7680 47104 246784 7168 375296 -93696 581632 -29696 340992 -26624 380416 336896 -71680 276992 -121856 -133120 78848 284160 148992 176640 377856 -15872 -128000 -252928 -226816 187904 -197632 -136704 296960 159232 318976 16384 139264 33792 -226304 8704 88576 198144 133120 -37376 -113152 -80384 -303104 -246272 279040 -490496 266240 -71168 266752 358400 240128 111616 31232 -25600 102912 1024 167424 138240 270336 -178688 -222208 22016 733696 13824 468992 478720 -100352 47616 -180224 -13824 -118784 -232448 -384000 265728 -8704 129536 311296 57856 -402944 688640 -160768 -35328 150528 -58368 259584 138240 -37376 281600 141824 155136 -96768 40448 -36864 -14848 -70144 6656 6656 290816 247808 113152 -137728 56320 194048 94208 644608 715776 -164352 -217088 -30720 -121344 81408 -28672 -14336 -48128 450560 836096 -1024 355840 283136 441856 85504 510464 234496 34304 60416 1713152 181248 45568 132608 -102912 579584 -93184 -305152 484352 16384 322048 -116736 345600 -193024 72192 77824 494592 238592 167424 322560 229376 118784 608768 105472 590848 97280 179200 464384 244224 124928 -4608 312832 61440 -72704 580608 432640 16896 172544 -82432 77312 -81408 92160 223232 165376 -125440 19456 119296 209408 -303104 74240 322560 237056 436224 -13824 46080 53760 214528 37888 111104 -137216 16896 -61440 -106496 38400 530432 335360 408064 481280 452096 265728 758784 -84480 -130048 302592 585728 170496 126464 690176 27136 465408 87040 -156160 26624 73728 -177664 311808 431104 361984 -121344 -349184 116736 326656 99840 136192 266240 93696 -86528 97792 1296896 738816 326144 -48128 206848 -14848 -832000 181248 -101888 -175616 101888 1188352 104448 81408 222208 146432 102400 -83968 172032 -16384 -53248 -57344 221184 4096 65536 -122880 24576 36864 81920 262144 -131072 -73728 212992 364544 -20480 -53248 -28672 -53248 -57344 -73728 53248 -73728 -212992 245760 217088 -126976 335872 -65536 339968 192512 -204800 -40960 -57344 184320 237568 8192 221184 -53248 258048 40960 155648 16384 253952 217088 -102400 307200 167936 -12288 -16384 4096 -131072 184320 20480 -110592 253952 -36864 233472 -36864 446464 -65536 118784 360448 32768 -81920 -4096 16384 286720 -212992 -12288 303104 -102400 12288 229376 143360 98304 4096 -49152 53248 -155648 69632 36864 -12288 57344 -196608 -176128 0 212992 -61440 57344 -86016 12288 -61440 368640 -28672 -16384 -299008 -36864 -53248 167936 266240 -4096 -45056 270336 204800 -61440 192512 4096 -20480 -4096 69632 -16384 212992 -8192 -102400 -94208 -4096 -40960 -32768 -90112 -61440 331776 -184320 -204800 266240 323584 -20480 102400 -20480 348160 8192 262144 -20480 -20480 344064 253952 -90112 -196608 -12288 -159744 417792 8192 -36864 262144 258048 -16384 -139264 380928 200704 0 -16384 -40960 221184 249856 16384 155648 -36864 -24576 0 65536 -12288 -57344 -102400 184320 -8192 -16384 -49152 339968 -8192 151552 339968 -20480 327680 -24576 69632 16384 -24576 -12288 -200704 -81920 -90112 -24576 -20480 -24576 -4096 -8192 -139264 -24576 241664 -28672 348160 188416 217088 -24576 278528 294912 -90112 102400 -16384 180224 69632 61440 -20480 -81920 106496 -81920 303104 -294912 -49152 8192 204800 -106496 221184 -28672 36864 -184320 339968 0 -90112 258048 155648 491520 -20480 40960 -8192 159744 286720 327680 0 -126976 -106496 -86016 315392 188416 -49152 90112 24576 -28672 24576 0 180224 -110592 -69632 -40960 24576 0 -536576 159744 0 159744 217088 65536 90112 274432 344064 315392 -69632 -118784 -20480 -397312 282624 -102400 151552 208896 20480 143360 98304 -319488 -65536 20480 -61440 -40960 499712 253952 -32768 69632 16384 -212992 237568 -16384 184320 -12288 -102400 -53248 -65536 -49152 -172032 -24576 204800 262144 -32768 139264 12288 -20480 -106496 -20480 -28672 4096 -106496 81920 122880 4096 -233472 -294912 53248 -126976 208896 -28672 -49152 -135168 196608 -8192 -40960 -20480 -90112 147456 225280 -20480 -126976 -122880 180224 159744 217088 -163840 24576 -12288 0 159744 -73728 -24576 143360 339968 -36864 102400 278528 -311296 -24576 405504 204800 -131072 -98304 376832 -147456 12288 98304 221184 229376 -122880 -143360 266240 -20480 -4096 0 -12288 16384 24576 143360 294912 225280 -4096 303104 -532480 208896 -131072 -69632 -184320 16384 176128 -73728 221184 24576 -434176 368640 -4096 86016 -28672 -57344 151552 94208 253952 -90112 90112 90112 266240 -513024 174080 199168 330240 353792 -333824 266752 410624 -378880 398336 169472 -202752 -79360 -472064 -161280 -55296 526336 -318976 348160 -111104 -152064 78848 -525312 -23040 -163840 290304 296960 347136 39936 94720 3072 -181760 -678912 99328 393728 76800 -325120 -185344 -104448 549888 95232 -180224 -374784 -50176 89600 54784 -294400 317952 266752 90112 248832 293888 -574976 262656 -232448 215552 147456 -87552 -463360 -156160 252416 160256 -114176 131584 350208 397824 282368 183296 -4096 163840 501248 123648 42240 199680 139776 304896 251648 328960 501504 22272 318720 720640 275712 45568 49664 325632 132608 162304 382208 447488 82688 236032 162560 153344 124672 781568 142080 124160 230400 375040 353536 327168 129024 -64256 1070848 17664 391680 216064 722176 2048 284928 444160 42496 152832 706816 395264 121088 9216 192256 205056 264960 927232 378368 335872 587264 164096 196608 -238080 68864 268544 329216 399360 229120 218112 215040 59392 118016 101888 172288 465152 -60160 232448 131072 -128000 182272 11264 152576 127744 58880 889856 -66560 270848 -420096 355584 66048 454912 553216 623360 113664 -256 304640 46336 565248 315136 162560 113408 228608 134656 104960 374016 237824 36608 847616 -50176 162048 307968 187392 -66304 214272 368384 266752 231936 161536 70912 81408 480256 316672 394496 327680 235008 57344 -18944 566016 126720 351744 704768 78592 21504 246016 616960 41472 189440 738560 137728 180992 180992 569088 144384 383744 -280832 610816 116992 666368 336384 154624 159744 -32768 167936 143104 230656 194560 154368 270336 101120 59392 212224 440064 203520 291328 91904 565248 602624 -276736 238336 491520 697600 554496 461056 136960 -323328 495360 301056 66304 -36864 258048 319232 47360 246784 256000 376064 92672 309248 380928 481280 210432 522240 192000 -79104 -59904 199168 455424 190208 242944 271872 229632 247552 42752 158464 52224 254720 443136 -83712 365312 -4096 521216 205056 56320 225024 145664 173824 401664 203520 404736 252672 605696 436224 270336 105216 372224 131840 326400 197120 234752 261120 200960 270592 241408 279552 243456 261632 142080 678400 261376 68608 558080 517120 245760 -173056 84736 751360 100608 580352 -164352 104704 219648 201216 431872 224000 235520 659200 229120 165632 373760 -12288 205568 340736 901120 80640 -74496 252416 73728 -309248 224768 192256 237568 321024 220672 512512 -79104 62464 1045248 499456 80896 127744 342272 442880 24576 322304 126208 691200 310528 24832 773376 139520 300288 177664 918272 -35328 -10752 142848 790784 536576 230400 73472 254976 326656 -166144 -183552 192512 -102144 754432 302592 74240 -77312 171264 593664 120320 165376 455168 647168 -768 539392 155904 -46080 41216 239104 248064 -123648 77056 64000 882432 348160 -115968 136448 297984 287232 341760 194304 79616 472320 590592 457728 612096 681984 299520 227840 447744 707840 42752 269312 202496 140288 229888 897280 654848 176128 -155392 487936 475136 304640 509696 202496 549632 60672 244992 343040 249088 597504 750592 112128 419840 123392 492544 462336 384000 185344 96256 442112 128256 57088 651776 248576 137472 579328 -10752 86272 250880 61440 380928 49152 -75776 481280 -73728 315392 -16384 321536 376832 438272 354304 346112 346112 -12288 -34816 8192 -53248 -137216 348160 53248 -28672 -34816 -77824 262144 -88064 -235520 -8192 -32768 251904 -22528 63488 57344 -2048 311296 -40960 395264 -10240 356352 -81920 -22528 -483328 262144 14336 307200 106496 403456 -57344 389120 292864 -4096 22528 -135168 -30720 -20480 -53248 464896 -12288 -516096 -86016 337920 -143360 399360 563200 110592 -24576 49152 32768 -22528 -28672 548864 -30720 0 442368 317440 380928 -120832 -49152 -36864 327680 -4096 -71680 -28672 -75776 6144 -122880 -94208 378880 241664 -30720 -65536 -81920 -296960 -169984 -223232 0 493568 249856 -14336 -272384 -2048 -22528 -2048 399360 311296 -24576 413696 389120 -45056 -241664 245760 436224 0 600064 282624 -346112 -22528 -2048 337920 317440 206848 -40960 315392 331776 -106496 311296 184320 301056 108544 -71680 421888 -2048 -147456 -18432 231424 311296 270336 237568 546816 -264192 0 382976 245760 -186368 -135168 356352 307200 -178176 -36864 -67584 -63488 305152 -2048 319488 -30720 -63488 -10240 38912 452608 311296 360448 38912 468992 -104448 493568 141312 -79872 -137216 256000 -36864 258048 -311296 -155648 -190464 413696 311296 -38912 407552 -83968 -8192 -34816 -2048 184320 276480 434176 -106496 -26624 -22528 -26624 -141312 -2048 -88064 -81920 276480 -38912 376832 -2048 389120 354304 -2048 485376 251904 180224 311296 -4096 4096 -10240 169984 155648 -61440 -10240 -317440 -43008 8192 -18432 370688 212992 237568 -4096 28672 -28672 114688 -94208 -16384 90112 -124928 342016 6144 335872 -63488 -6144 -8192 -131072 471040 -6144 438272 219136 -36864 -258048 344064 -6144 -92160 -251904 -8192 186368 346112 -36864 348160 -71680 428032 321536 -126976 -124928 67584 419840 303104 -180224 -159744 307200 -133120 -311296 -34816 -237568 -43008 -67584 237568 -94208 413696 206848 595968 301056 391168 350208 -12288 -260096 251904 96256 -327680 -14336 204800 -30720 -88064 -239616 -124928 -313344 -2048 -118784 -36864 307200 -206848 -59392 239616 428032 -389120 233472 20480 -2048 -466944 -10240 -22528 -36864 -38912 6144 -18432 -36864 241664 212992 -71680 -36864 -219136 -26624 -22528 -24576 -327680 313344 -116736 -223232 -8192 -122880 333824 -36864 -8192 -59392 360448 -4096 342016 -8192 -28672 -178176 483328 -18432 45056 241664 -61440 325632 206848 466944 -137216 -20480 -126976 -20480 417792 389120 202752 -102400 -6144 -47104 348160 8192 323584 -141312 83968 -262144 403456 -71680 151552 -192512 -172032 325632 -186368 229376 440320 -34816 22528 -71680 251904 -20480 81920 -32768 -22528 -73728 -69632 -6144 -20480 -110592 55296 249856 -153600 491520 311296 -34816 -6144 -14336 446464 92160 -13824 945152 455168 307712 -387072 298496 -217088 436224 -463872 169472 -283136 176640 346624 391680 -590336 -290304 -214528 302592 -569344 -222720 695808 -9728 217088 599552 -267264 262656 62464 30720 -150528 870400 142848 601600 321536 -619008 450048 443904 -651776 -88576 394240 -1152000 -819712 65024 -236544 -987648 601600 57344 489472 -241664 416768 64000 -117248 -492032 431616 -466432 -474624 380416 -798720 609280 133120 -192512 -108032 -187904 521216 -29184 155648 -654848 67584 -555520 -212480 671232 385536 201216 -548864 52736 624128 -63488 -687616 111104 507392 238080 -82944 -1132544 121856 -145920 -523776 63488 -152576 749568 338432 -492032 907264 145408 -234496 501248 -205312 282112 -16384 160256 213504 104960 356864 204800 150016 59904 -252928 268288 105984 19968 252928 245760 94720 61440 30720 101888 -3072 83968 67584 185856 54784 49664 256000 156160 181248 80896 52224 111616 243712 102400 58368 53248 -33280 310784 187904 152576 193024 52224 246784 180224 248832 122880 107520 59392 135680 250368 441856 11776 112128 -53760 244224 118272 88576 246784 126976 88064 -106496 151552 -48640 36864 243200 148992 167424 243712 159232 -60928 445952 104448 39424 -2560 33280 -61440 3072 -9728 82944 232960 -129024 58368 29696 465920 112128 180224 184832 142848 61440 176128 158720 -20480 -31744 193536 103424 142848 83456 -80384 214528 29184 119808 292352 154112 119808 -41472 109056 512 223232 124928 24576 -25600 126976 97280 167936 62464 239104 174592 145920 135680 -29696 35328 88064 167424 119296 -32256 96256 112640 130048 -99328 47616 12288 171520 -72704 -752640 150016 2048 60416 52224 174080 211968 108544 6144 64512 120832 86016 68096 143872 587264 73728 327680 131584 105472 74752 488448 137728 72704 223232 185856 -85504 141312 124416 198144 15872 -14848 48640 -27136 99840 -3072 209408 -1536 81920 108032 177664 -149504 89088 62464 86016 127488 71168 -72704 38400 -67072 61440 108032 121344 608256 58880 211456 44544 -32256 128000 185856 134144 174080 267264 158208 109568 309248 228864 -117248 88576 -90624 29184 -14336 230400 145920 113152 43520 254976 107520 276992 -2048 53760 218624 12800 -22016 118784 -2048 90112 66560 58368 170496 145408 60416 -197632 74240 74752 -79360 194048 68608 318464 152064 159232 103424 -26624 -14848 94720 -24576 116224 117248 151552 40448 203776 104960 133120 184320 50176 108544 95744 228864 246272 -16896 158720 72704 256512 64000 12288 9728 35840 114176 212480 176128 61440 -25600 161280 274432 8704 89600 -40960 10240 -2048 72704 96768 128512 35328 127488 149504 107008 342016 178688 32768 196608 -83968 219136 301568 54272 155648 -16384 83968 110080 75776 56320 140288 109056 50176 54784 76288 104448 99328 323072 233472 111104 62464 41984 58368 88576 89600 75264 87552 89088 290816 -61952 111616 211456 98304 82432 226816 79360 140800 56832 -37888 125952 -34816 176128 -95232 235008 164352 143360 258560 217088 125952 96256 236544 164864 110592 43520 25088 -8704 300544 136192 -36352 63488 36864 121344 90624 125952 70144 61952 198144 143360 256512 49664 123904 220672 54784 -10752 59392 308224 -36352 123904 92160 -81920 -126464 161280 57344 -65024 148992 52736 78848 90624 151040 -23552 -102400 -7680 87552 109568 37376 7168 35840 316416 94208 -43008 93184 70656 222720 101888 217600 51712 647168 75776 98304 -8704 14336 52224 38912 174080 107008 34304 108544 209408 132608 128512 19456 197120 78848 43008 114176 129024 104448 71168 229376 268288 318976 -14336 206336 109568 -14848 28160 -5120 33792 77312 117248 -32256 16896 267776 120320 55296 161280 167936 137728 77312 132608 153088 102912 263168 104960 38400 95744 90112 25088 993280 -80384 27648 105472 2048 147456 139264 91648 -11264 21504 1536 104448 161792 104448 153600 12800 603648 72704 113152 221184 120320 166400 44032 482304 60928 215040 45568 122368 239104 195584 -211968 -31744 119296 4096 98304 49664 288256 133632 641024 128512 59392 26624 235008 110080 194048 73216 54272 257024 156672 107008 212992 195584 397824 -54784 56320 134656 174080 96768 140800 138240 233984 64512 -16896 83968 6144 22016 126464 35328 201216 124928 233472 -40960 60416 84480 20992 100352 -81920 201728 14336 -56832 54784 80896 -4096 -52224 120320 151040 80384 212480 64512 109568 81408 15872 119808 66560 126976 145920 311808 101888 202752 71168 158720 104448 144896 66560 24576 124416 345088 -97280 66048 77312 49664 38400 8704 74752 25088 166400 132096 0 296960 71168 160256 98816 189952 313344 71168 23552 122880 62976 29184 376832 30208 98304 139776 204800 134144 133632 265728 185344 65536 -30720 -16384 63488 -77824 -4096 71680 2048 6144 -32768 -10240 0 -40960 -67584 79872 -4096 4096 100352 16384 -2048 73728 -69632 -10240 18432 -26624 -57344 59392 -28672 81920 -16384 -10240 49152 -10240 114688 57344 -28672 22528 -10240 4096 20480 -32768 -16384 -40960 -16384 67584 10240 -14336 -34816 -169984 -30720 -20480 8192 8192 92160 59392 -26624 2048 75776 14336 -20480 6144 22528 -16384 -6144 -8192 -30720 -18432 36864 -81920 -8192 -2048 59392 73728 24576 59392 20480 -2048 -18432 -2048 22528 20480 -18432 67584 86016 94208 -22528 -6144 -8192 86016 -4096 -2048 0 73728 -12288 -10240 4096 59392 6144 -4096 -47104 81920 75776 -2048 0 14336 -18432 -4096 -8192 6144 67584 100352 -49152 61440 -30720 -4096 0 -2048 -4096 2048 83968 0 106496 38912 -2048 4096 98304 59392 6144 34816 -43008 43008 -67584 69632 -2048 -2048 59392 -6144 -4096 -57344 4096 92160 43008 6144 -30720 94208 -92160 0 -88064 -2048 -6144 63488 -100352 -4096 65536 2048 -38912 2048 -18432 -24576 -16384 8192 81920 16384 -2048 -12288 -2048 -24576 14336 0 53248 -8192 36864 55296 14336 79872 65536 -2048 0 43008 -2048 2048 53248 73728 -96256 69632 -4096 16384 -43008 124928 -14336 -49152 -40960 -34816 -4096 -4096 -8192 -26624 77824 6144 30720 2048 2048 -14336 43008 63488 -2048 -47104 -6144 -36864 30720 -2048 -8192 63488 55296 69632 0 108544 -2048 45056 -32768 -20480 49152 59392 114688 51200 0 4096 -6144 -26624 -14336 -6144 -6144 -2048 24576 90112 -2048 63488 -32768 -30720 2048 -14336 53248 104448 8192 -4096 0 88064 -14336 -4096 -2048 -4096 79872 -40960 137216 55296 63488 38912 -83968 -10240 -14336 102400 18432 0 -65536 0 53248 30720 47104 2048 92160 71680 -18432 45056 -12288 36864 49152 -51200 -55296 67584 -8192 16384 -8192 -8192 -40960 43008 53248 12288 8192 -2048 0 -49152 18432 14336 -8192 47104 -20480 -2048 -51200 -61440 -12288 51200 102400 10240 -2048 63488 -2048 -43008 55296 43008 -4096 -10240 -10240 -6144 94208 -28672 59392 4096 2048 -2048 -8192 10240 -8192 18432 -47104 -47104 -22528 0 -20480 -55296 65536 -16384 -26624 51200 88064 -2048 63488 -34816 -8192 88064 51200 6144 -14336 18432 -2048 -8192 -2048 -30720 75776 -36864 -45056 77824 -49152 -16384 26624 71680 -28672 28672 -24576 71680 2048 10240 -49152 63488 18432 57344 -6144 -2048 63488 69632 -4096 4096 0 16384 -49152 2048 34816 -12288 10240 65536 -4096 81920 -2048 -28672 0 -8192 34816 -126976 69632 22528 40960 47104 -4096 69632 -2048 -24576 92160 -4096 -32768 -4096 124928 4096 -24576 79872 -24576 -16384 -20480 -30720 4096 -8192 -49152 -40960 36864 -40960 -4096 -6144 43008 92160 18432 57344 86016 -2048 -2048 -57344 -4096 53248 -18432 79872 -14336 92160 -8192 -12288 61440 -32768 61440 94208 -28672 63488 -10240 -178176 -12288 4096 88064 22528 -20480 86016 71680 18432 51200 45056 34816 12288 4096 -10240 92160 -151552 47104 79872 -28672 75776 -8192 77824 -94208 8192 -49152 124928 96256 -47104 -10240 86016 -2048 55296 2048 88064 67584 -2048 77824 -163840 81920 59392 98304 -2048 -10240 2048 53248 67584 -8192 102400 65536 -14336 -45056 -20480 51200 73728 -22528 -8192 112640 -12288 67584 -24576 73728 2048 49152 28672 4096 120832 28672 0 59392 -14336 -47104 61440 51200 6144 49152 4096 -32768 0 10240 -4096 90112 63488 8192 -43008 -38912 28672 -18432 -28672 2048 0 2048 -2048 94208 -28672 86016 -24576 -24576 -16384 2048 -32768 45056 -28672 98304 10240 92160 -18432 69632 67584 102400 -4096 -4096 12288 -4096 102400 -20480 0 -2048 -14336 59392 -24576 -4096 -8192 -8192 57344 -2048 -57344 -2048 2048 -61440 51200 -67584 45056 -12288 67584 -28672 -16384 -12288 1249280 599040 115712 -211968 1022976 -196608 68608 1710080 455680 813056 157696 819200 -178176 -82944 -23552 -599040 -636928 -24576 259072 -557056 35840 -868352 -613376 -2278400 -540672 -1409024 479232 -1008640 477184 342016 1476608 354304 -266240 909312 750592 -609280 351232 551936 57344 -83968 247808 750592 -232448 139264 221184 577536 -292864 -330752 -129024 714752 -128000 -74752 -1557504 -140288 -998400 2093056 449536 -618496 152576 -513024 822272 -1512448 -484352 -285696 -662528 666624 -479232 304128 -542720 -70656 110592 1396736 1108992 -1402880 483328 -344064 709632 716800 338944 322560 271360 -115712 -1302528 294912 -357376 -364544 -149504 612352 -631808 -368640 -59392 -13312 -1182720 -752640 1084416 1106944 151808 20224 77312 80128 174592 97024 -11520 96768 61696 50688 188928 44032 69632 110592 115968 198400 208896 -139776 143360 236288 131584 22528 61952 119040 123648 -18688 41216 148480 73216 72192 52736 76800 -7936 66304 109312 183040 121600 62976 37120 33536 241920 134400 273152 111872 246784 -1280 -12288 369664 109568 -78592 312320 109312 52736 143104 224256 122368 404224 218624 183040 206592 38656 180224 158720 139264 241408 125440 84992 171520 -15104 246016 -19456 180224 159232 65024 94720 248576 55296 182016 129792 119296 220928 112128 235520 44544 107776 87040 -256 151296 96000 48640 153344 49408 92928 68608 107776 164096 453376 47360 48896 108544 -18688 222208 148992 99840 1536 143360 77568 115456 190720 73984 139008 110848 162816 300288 17664 160768 129280 115456 248832 206592 85504 153600 -33024 88832 653824 21248 151040 12032 -27392 8704 121344 38400 -23808 -16128 107520 262656 112640 133120 384256 47872 38144 136192 217856 273664 174592 201984 24832 127232 -30464 178944 37120 12032 6656 89344 46592 232704 62720 96256 177152 259584 109824 104192 36096 114432 59648 135424 -6144 160768 -71680 -2816 179200 90880 75520 122368 82688 212992 -32000 99328 109824 159488 177152 162304 7424 109056 78848 417536 86272 91392 319488 57856 117504 68352 137472 13056 22016 168960 222464 358144 47872 291840 142848 221440 46848 -447232 135424 175872 83456 105728 50176 66560 -3584 97280 130816 252928 244224 56576 214272 269824 292864 10752 187904 91904 122880 -47872 71936 189184 96256 22528 132352 442368 198656 56320 186112 30976 106496 -38656 32000 99328 65024 -113920 480256 -35328 109056 91392 197376 24320 56320 135936 84224 -3584 198912 49920 59648 72960 100608 182016 202240 232704 453120 278016 51968 191232 133120 112128 147200 64512 123904 198656 155136 -4864 80896 140032 -135168 42240 13312 157440 70400 92672 38656 -118272 -14080 -29184 111104 173568 66048 124928 217856 107776 819200 123136 92672 38144 80896 227072 409088 156928 -15360 240128 128256 152576 166912 85760 142848 -101632 102912 136704 14336 -31744 -37120 78080 68608 119552 1024 11008 160000 -6400 8704 210688 294912 462080 65792 69888 83200 -3584 141824 35328 187904 101376 -34816 147712 51200 435712 197120 89600 136704 120064 190464 84736 206080 154112 133888 -9216 80128 38656 131840 122624 45312 38400 29440 139008 176128 57088 98816 143872 75008 489472 124416 -43264 72704 206080 -4864 119296 102912 151040 316160 18432 110080 72448 120576 114944 155136 101632 401920 7680 336128 15104 278272 113664 205824 -26880 149248 207616 353280 121088 91648 40448 137984 191488 169728 111616 21248 116992 82944 177920 142592 16384 141824 144640 238848 108544 43008 144384 109312 118016 61696 -56320 15872 -2816 71680 169472 102400 139264 176128 109568 132864 268288 194816 159488 -6144 285184 -52736 114688 173568 96256 456448 77568 143104 69120 334080 110848 66048 164608 36352 70144 139008 92416 363264 19712 231168 261888 65024 144384 147712 125952 183552 53248 128256 12288 108800 76544 323584 77824 185856 142592 151552 57344 61696 14848 61696 211456 39168 101120 -11008 259840 339200 -27648 83200 73728 131584 89856 41728 22016 23552 197376 63232 460544 121088 149760 99072 48384 56320 187648 9472 208640 204544 135936 49408 91136 190464 325632 25344 57344 113664 37632 -89856 -27392 -29952 172800 126720 208384 115200 168192 131328 -16128 18688 22272 11008 13312 296192 182272 240128 19456 82176 219904 276992 235520 664064 84480 214016 278272 122624 187136 0 167424 100352 220672 250368 311296 287232 54016 66048 264960 96000 243200 -14848 55552 127744 139776 149760 89344 55808 152832 74240 128256 -17152 75008 148480 51712 113408 20224 14848 371200 131840 108544 301312 167680 63488 133632 80128 121344 201216 103424 -2816 149760 21504 33024 88064 87040 46336 166912 77824 50944 118016 142848 145664 174592 32256 2560 -4096 14336 -10752 20480 1024 14336 19968 -3072 20480 28672 9216 -12288 13824 -4608 -16896 512 14336 -2560 -5632 -512 -1024 2048 -3072 -512 4096 15872 -512 -512 15360 -2048 8704 -3584 15360 -3072 -1536 2560 -3584 12288 -4608 22528 -8704 -8704 0 4608 9728 -26624 -1024 12288 -20480 -12800 7168 4608 -3584 7680 -32256 -10752 14848 -20480 18432 -14336 -1536 -1024 -11264 -10752 3584 -14336 24064 -12800 1536 -9728 -5632 512 17408 -3584 25600 -3072 -512 -3072 -9216 17408 -22016 -1024 -1536 18432 17920 -15360 16384 -1024 -6656 15360 -4608 -7168 -1024 -2560 -31232 16384 14336 24576 17920 -12800 -2048 13824 3072 20992 18944 15872 -4608 3072 -2048 13312 -6144 0 -3584 -2560 12288 22528 -5632 -512 1024 -3072 0 24064 -29184 3584 -5632 16384 -1536 12288 -1536 15360 -1024 25088 -2560 -10752 9728 -5120 -39936 0 15872 -4608 -1536 -2048 -8192 -16896 11264 -3584 -1536 -4096 13312 1024 1024 17920 1024 18944 10240 -2048 -17408 -25600 23040 19456 9728 -3072 -7680 16896 0 -5632 0 3072 -3072 22016 17920 -6656 18944 -10240 13824 22016 16896 -4096 7680 -2048 8192 20480 23552 -20992 0 -512 -11264 11264 23040 -2560 -512 13312 12288 -9216 -13312 -15360 -2560 -16384 -2560 -4096 16384 -5632 -11264 -1536 -6656 19968 -512 0 -3072 22016 23040 -3584 -3584 12288 -5120 -2048 -512 15872 22016 2560 16896 2560 22016 -24576 -3072 12288 -5632 -16384 19968 1536 -2560 18432 24064 15872 -1024 2560 -512 27648 -23552 512 -14848 12800 -8192 -1536 21504 -7680 12800 15872 -3584 -2560 -2560 6656 9728 -4608 -10752 -512 -33792 -2048 0 -1024 -4608 19456 -1536 16384 26624 15872 21504 14336 14336 -8704 1024 13824 24576 -5632 -5120 -5632 6656 1024 0 -1536 -11264 14848 29184 1024 9728 17920 -65024 14336 13824 16896 -2560 30208 -4608 -15872 18432 -1536 22528 -512 -5120 19456 22528 19968 -6656 -2048 16896 13312 2560 -512 15360 -1024 512 -2560 13312 1024 14336 -2560 -19968 -19968 0 23552 1024 4608 -6656 2560 16384 22528 17408 -23040 22016 -9728 -11776 -6656 19456 13312 -15872 14848 -3584 -6144 5120 12800 2048 14336 25600 4096 -1024 -3584 11776 15360 22016 7680 7168 -23040 6144 -26624 -7168 20992 20992 -10752 512 -10240 -3584 -5632 -10752 13312 20992 7168 -6656 -3072 9216 -3072 -11264 -512 -16896 21504 -15360 -2048 -1536 -2560 -3584 -10240 -16896 -1536 23552 9216 17920 -5632 -512 14336 -5120 2560 -512 23552 0 20992 18944 -1536 -10240 -3072 15872 9216 12288 -8704 3584 9728 10240 -512 -3584 -6144 2560 20480 -512 2560 10240 -3072 -11776 -10240 13312 -11264 9728 -4608 -4096 12800 -23552 -512 -15872 -2048 -1536 -14336 14336 -5120 0 16896 -3584 7680 -30208 0 -3072 -3584 19968 -10240 -11264 1536 -7168 512 18432 -1024 -13312 16384 -27136 1024 -12800 21504 -4096 512 15360 14848 1024 0 -512 -2560 5120 -9216 -22528 18944 0 -9216 -2048 512 2048 16896 20992 -512 33280 -40448 18432 14848 0 -1024 -512 14336 15872 13824 14848 17408 6656 -1536 9728 -13312 -1536 21504 16896 -9728 9728 -1536 -2048 -5120 18944 -11264 -4096 22528 -6656 -24576 0 -6144 16384 -14848 -16384 -4608 -5632 11264 -2560 -1024 -6144 -7680 -47616 -1024 -1024 -5632 26112 -9728 19968 -9216 -1024 -7680 26112 -12800 -3072 -6144 -1536 -1024 25600 -1024 -512 0 20992 -512 -1024 19456 -3584 -3584 17408 -14848 -1024 512 23040 -1536 22016 18432 13824 -22016 24576 -4096 -19968 -2560 23040 23040 -7168 -512 -512 23040 7680 -4608 13824 -6144 12800 3584 -1536 -1536 -2048 20480 11776 14848 -2560 -3072 21504 117248 131584 65024 265216 138752 66048 129536 53248 190464 -91648 302080 112128 -48640 179712 297472 -50688 22528 -80896 -331264 -143872 55808 6656 91136 -334336 -249344 41984 128000 180736 -39936 7680 82944 2048 31232 125952 31232 -163840 -138240 83456 -356864 -219648 107520 -68096 306176 -20480 251904 -224256 155136 -215040 123392 -127488 195072 -1024 -194560 -163840 154624 6144 -16384 -446976 -423424 425472 -293376 -83968 184320 59392 -11776 -333824 -22528 -24064 133632 -301568 -408576 -168448 -109568 -30208 414720 -104960 335360 -155648 -117760 253952 71680 61440 136704 -102400 73728 -10752 -270848 62976 150016 -372736 -385536 236544 -285184 -99840 -91648 106368 26496 150272 62592 19712 66048 106752 121344 56064 91136 40960 85120 38528 53632 71424 72576 -26752 207744 107904 111744 73344 109568 130944 128128 50048 89472 16128 32768 70272 97920 81280 98944 60672 28800 80384 68608 44800 49536 116224 -4736 69760 28928 138240 87936 34304 94720 55168 38272 56832 32256 94208 179712 41856 71040 78848 63360 60288 34816 56960 81664 52864 251008 38144 78080 62080 55040 32000 123264 105344 30208 123008 152704 68992 46720 81792 51840 22784 77440 312960 133120 37760 23680 -18688 75392 40832 230272 2432 43776 129920 68992 62720 100992 46080 104960 74752 113152 93952 15488 30336 116224 109952 62208 104960 94848 86784 57984 67328 55552 52992 112512 32768 104320 88832 130048 85120 68224 111360 50432 161280 56832 110208 368640 325504 96000 81408 104960 86272 29824 51968 63744 53120 92416 70016 40704 42880 64640 59264 162816 32768 51584 115968 79232 43008 47872 28544 67584 20608 89088 52224 94848 114432 79872 88448 88064 80512 54272 46464 124288 46464 77184 70656 3968 66304 68224 75264 71424 114048 18816 56448 48384 67456 81280 45696 65792 86912 91392 144256 55040 183808 86656 279808 113536 96896 125184 44288 117632 172160 78336 110848 4480 100096 71680 64384 88192 67840 62720 57856 20096 107648 183040 92544 117888 32256 65536 120192 66816 69760 45312 120832 42880 118528 165120 81152 134016 114944 321920 87424 36864 82944 66560 512 31360 72192 6528 79488 134400 146176 20992 56704 89344 57472 66560 54656 108800 57344 142592 85760 52608 104192 42752 15488 62976 -1792 45184 220416 92544 52992 56448 23296 15616 130176 108032 48384 49792 64256 110976 31104 77824 82944 14336 72832 61696 1280 68480 266880 88320 89600 75520 41472 8192 74880 90368 65920 39296 51328 145280 88320 43648 91136 21888 53120 136960 118144 53632 41600 42752 56960 98176 145664 62592 6912 89344 104320 75008 22912 67456 78976 24064 72064 39168 53504 87296 39040 21760 -19584 94592 102912 3328 19200 74624 47104 127616 3200 98560 24832 37248 117248 55680 55680 38784 81024 81920 100864 80128 25984 44928 82816 61952 94464 66048 88192 37120 81664 423168 68352 45824 108544 98048 85760 151296 29440 106752 59648 114176 30848 80384 45056 59648 20864 68224 -13824 107008 97152 14080 158976 33920 61568 48128 21248 119040 47616 81024 90880 102912 125952 105088 85632 28288 50176 171776 61696 86400 76928 54272 109696 96128 42624 123392 109056 34560 97408 -59392 41472 31616 42240 80896 81152 95488 67328 70912 57216 85376 61440 46208 85248 3840 85504 51200 90240 56448 62336 28928 317184 52736 92416 121600 62336 53888 55040 55552 108544 97792 62080 79616 84480 50816 90368 57856 84480 71168 125440 48896 42496 482048 53888 75264 70272 188288 61952 87296 119552 95872 -10240 77568 127360 51456 48000 50816 109440 69248 200320 19840 95232 64128 104320 92160 100096 36224 53632 50048 27648 133120 142080 70016 138240 66816 53248 104832 67456 63232 106368 56448 82304 72448 119296 59648 26240 3456 123904 101504 126208 45184 78848 70400 260352 24320 24960 66432 48896 93440 63232 119040 54784 92928 146048 27520 62976 52352 110208 45184 6784 135040 53632 70016 49792 34304 48640 44160 222464 103680 93184 121984 108672 93568 -4608 124544 198016 109440 425216 76800 66176 64896 16512 118272 66560 110976 105728 78592 119040 37504 86400 91904 75008 32640 57344 83712 96896 29312 63104 36736 14976 52864 264192 83840 3584 84224 66560 98432 207488 9856 105216 137600 -25856 -21248 80128 87808 55296 200064 132352 73216 62336 114304 117632 51584 51840 53376 10368 77696 7168 181760 114944 128128 81664 120832 127232 60544 19456 116224 93824 134784 78720 61184 103808 145792 31872 112256 395264 464896 5120 -17408 0 334848 -2048 -19456 -1024 -11264 -13312 307200 -20480 362496 -64512 -12288 251904 378880 -11264 3072 365568 -9216 393216 -10240 389120 310272 -8192 378880 5120 -17408 369664 312320 1024 0 -21504 364544 351232 -18432 386048 390144 309248 0 -4096 -25600 350208 0 -3072 371712 -7168 -6144 -21504 -9216 345088 404480 -8192 -1024 -8192 368640 -2048 -22528 -3072 0 9216 336896 323584 378880 7168 360448 -27648 394240 352256 -9216 -29696 360448 -35840 -20480 -11264 398336 -258048 418816 -20480 219136 -6144 -13312 -23552 488448 355328 -7168 -28672 363520 -10240 -8192 -23552 -7168 357376 14336 306176 305152 -15360 230400 -57344 -9216 -6144 -20480 -7168 -37888 -18432 -7168 -24576 -10240 -8192 -37888 -13312 342016 354304 -1024 -51200 -11264 20480 -9216 -22528 345088 -67584 -13312 -7168 379904 -12288 368640 -8192 300032 -41984 -27648 -6144 -20480 259072 344064 -19456 -33792 -2048 -27648 -14336 -16384 6144 -13312 381952 -43008 3072 443392 -30720 354304 -19456 378880 1024 -17408 -23552 -12288 -10240 406528 345088 -1024 -14336 -8192 -11264 312320 -1024 -32768 -34816 250880 392192 -5120 411648 -36864 373760 -5120 364544 -27648 5120 369664 339968 344064 -177152 380928 -55296 -14336 367616 -7168 -51200 -10240 -11264 323584 180224 198656 -10240 336896 443392 -24576 356352 225280 423936 304128 -13312 -9216 -32768 -35840 -35840 379904 434176 -5120 446464 -12288 -44032 -3072 276480 470016 -24576 -31744 -4096 -44032 380928 -123904 266240 385024 -36864 -2048 -4096 311296 -5120 -2048 -5120 333824 2048 -17408 405504 -3072 372736 390144 -9216 -11264 364544 340992 -7168 -18432 -8192 -35840 -47104 357376 369664 -4096 354304 366592 417792 438272 15360 4096 -2048 460800 -4096 340992 -30720 -13312 0 367616 399360 -17408 480256 -29696 1024 437248 -1024 -7168 389120 -15360 16384 -9216 361472 -10240 450560 -9216 -4096 386048 366592 -8192 -7168 19456 340992 -18432 340992 5120 352256 -46080 -22528 397312 -14336 358400 3072 256000 -27648 266240 275456 304128 -12288 362496 225280 336896 5120 -21504 -6144 -9216 348160 -20480 -5120 347136 -1024 377856 390144 366592 -43008 -6144 -11264 313344 -12288 -14336 278528 390144 -6144 -27648 -8192 -10240 -9216 -6144 364544 -4096 -8192 -332800 184320 -7168 -11264 -9216 -1024 375808 -13312 -26624 332800 -6144 -19456 -18432 332800 357376 -25600 372736 385024 325632 286720 6144 -19456 -13312 0 325632 349184 397312 367616 387072 360448 -1024 354304 -10240 -8192 361472 -24576 -44032 391168 -4096 -4096 -10240 -5120 357376 373760 -16384 -32768 -6144 -32768 4096 -2048 -3072 2048 4096 -2048 -1024 -3072 -19456 -2048 -26624 318464 -18432 -19456 -4096 -27648 410624 -2048 -5120 0 -13312 52224 -10240 -5120 347136 359424 -30720 -2048 -3072 -24576 -66560 -31744 -16384 353280 -7168 399360 -25600 -1024 5120 -12288 388096 -2048 156672 3072 -25600 -7168 -2048 -12288 310272 -5120 300032 -14336 -17408 357376 346112 -8192 -10240 345088 336896 480256 271360 340992 -6144 344064 436224 -19456 363520 1024 -21504 -4096 434176 403456 -7168 -48128 493568 221184 397312 -14336 411648 366592 275456 365568 2048 375808 332800 338944 1024 331776 406528 -76800 353280 0 346112 -209920 356352 -8192 389120 363520 -15360 347136 -18432 399360 364544 -1024 -25600 353280 -9216 377856 -19456 -8192 -19456 -15360 16384 373760 404480 352256 -3072 11264 455680 350208 381952 -8192 0 -5120 -29696 -77824 407552 62464 -9216 366592 -2048 265216 0 316416 432128 -28672 422912 -20480 368640 -33792 -12288 393216 -9216 -12288 -30720 -15360 439296 404480 322560 -14336 366592 -36864 400384 -10240 -49152 -8192 -19456 35840 352256 2048 326656 -11264 -4096 358400 324608 -2048 492544 -1024 -6144 -32768 -39936 384000 356352 -6144 344064 379904 -4096 367616 357376 -20480 -6144 -19456 508928 352256 -11264 240640 392192 -32768 372736 349184 -1024 -12288 372736 1024 351232 39552 26624 -57216 93568 1920 70016 -72832 -130176 -110080 -25728 -70784 67968 41344 -20480 -174208 -18176 -162432 109440 25984 -164224 65792 45824 -117888 -99968 -76160 63360 -63872 -3584 156928 118912 -99584 -16640 -25984 65920 53248 26112 -43648 768 -135552 49024 47872 98944 25728 58752 32768 -75136 -13824 98816 36480 27776 -16000 -50688 41856 64896 110336 -49152 80896 -105600 -48256 -77824 -3712 -60800 -19200 -27008 83712 33280 48000 -137728 -84480 11904 108800 59520 -225920 17792 5760 42496 71040 13184 38272 -18944 4608 -28672 92416 -65664 27520 -10112 43776 -85888 45312 -65664 80256 -63744 -75520 6912 -138368 57216 -24704 -35968 -75136 -45056 54016 -91136 41984 77952 123008 19328 148992 -7680 49024 -47104 -22528 -45056 52992 -11904 -100736 -31744 -75648 18048 114432 9344 -9472 -147456 -64384 76800 41600 68352 -20736 -33664 -30592 104192 4992 -41728 98176 37632 81792 94464 -43776 20736 -121088 62336 25856 20864 -160256 87936 -32384 -50944 -39808 -135168 149248 89984 -12800 -74880 -111744 -33792 -87168 -136320 -64512 -79616 -3712 -12672 400640 227328 453888 57088 369920 67840 325888 255232 77568 57600 77568 200448 474368 -56832 437248 61952 75008 -85248 -117760 154624 -83200 46336 47104 -38400 73216 226048 164096 52480 19968 209408 -109056 68096 23040 140800 36096 -22272 167680 87808 43776 -7936 140288 223744 255488 19456 8192 71936 28672 285696 354304 102144 38400 183808 365056 -121344 -46848 -79360 199168 -8192 -112128 254208 477440 122880 62720 1024 119552 16384 214528 -20224 30464 40960 217344 -88064 -37376 193536 99584 124160 107520 75008 8704 171520 100352 94208 40960 6656 56576 289792 -89344 11776 236288 445440 116992 -18432 276736 -58112 77824 164352 75776 210432 213248 11008 4608 -53248 168448 27904 48896 315136 -2304 11008 -47616 -70912 103168 121088 134656 -199424 141056 97536 -65024 38144 304896 144384 125952 4608 235008 114944 -11776 49152 -76544 -4608 289024 217088 15616 -38144 -144640 310016 -68096 50432 95488 364032 44544 101120 253440 46336 98816 108032 74240 158208 -160256 2560 81664 -27136 186624 -4352 226560 -151296 59904 28928 -85760 -122880 109056 -54016 75776 276736 -122624 69888 59904 123136 139264 106496 -70144 285440 -127488 -39424 -86528 37376 4352 176128 256512 88832 62208 174848 308224 69632 159488 16640 110592 79616 316672 50944 221952 65792 49920 -86016 86272 270592 -8448 12032 7168 220416 123136 88832 120064 257024 94208 205568 107264 61696 385280 90624 32256 246784 257536 64768 -36352 38656 37120 416256 357376 17408 -94464 73216 28416 132096 95488 79104 10240 143104 143616 72704 167168 124928 126720 112384 -57344 38656 231936 19712 153600 362240 -4608 223488 82432 35328 24576 -9984 203520 -116480 -124928 14080 -46848 194048 242688 -512 139264 48128 77568 -33024 89600 660736 -40960 210176 214528 62720 86016 -28416 -78592 -84992 191488 113408 260864 33792 119296 96768 52480 91392 -74752 22272 242176 194048 58624 23808 177920 120576 140288 306688 -113664 237312 352256 -69120 37632 98816 50688 -58880 33536 74752 -34816 524800 20480 -1792 90880 316672 174336 216064 26624 13312 -28672 -124672 42240 3072 122368 143872 173568 -68352 -23040 304128 123392 82432 109568 -116480 132864 176128 90624 207104 116736 207616 70400 87552 67072 263680 -112640 161024 46848 253952 120576 233472 8192 151808 322048 220672 90880 -15360 131840 28672 -109056 -57344 -89344 60416 68352 47360 18176 -65792 131840 15360 157696 -52224 239616 86784 47360 107008 69376 223744 37632 -4608 250368 -102656 177152 79104 65536 36608 -180480 325888 68864 53760 39680 222208 250880 41472 9472 63744 22784 168960 -235008 55552 -118528 77568 203264 -7424 176896 302080 237312 63744 363264 193024 124416 -170240 236032 50432 43264 77824 199168 225280 34048 146432 -27136 -29440 186368 198400 69888 10496 61440 289792 61184 30208 245504 208896 83200 150272 22528 41216 62720 -3328 -27648 210944 106496 184320 42752 123904 136192 62464 6144 222208 118016 112128 79872 229888 80384 133120 28672 62464 56576 -95232 -67584 69632 -22016 60928 255488 149248 212480 -92928 137984 -22528 39168 272640 97280 -17920 -68608 84224 83712 29952 42496 41728 28416 5632 -50176 -27904 189696 29440 27648 331264 175360 107520 73472 227584 124416 317696 394752 -36864 116224 200960 -8192 -135424 55296 133888 94464 182528 -65536 -23808 0 219904 -3584 288256 17920 201216 -53248 -26880 83456 590080 234496 119040 -47616 82432 24576 -90624 161280 -21248 -7168 28928 96000 67072 63488 126464 -28160 23808 -11776 -25088 -51712 47872 196096 66560 73472 -75520 -28672 20736 272384 69120 135936 80640 92672 244224 242944 196352 -88832 23552 144896 -31488 296704 111104 -41984 116992 178432 -4864 123136 1792 61184 129536 15872 388608 149504 -108544 80640 279296 17664 69376 -63232 172800 272128 -43264 -5632 -14592 341760 73984 -6656 93184 273920 154368 -3072 127488 191488 133632 -43264 -69888 129536 -30208 64768 60160 125952 39424 265984 96000 38144 -62976 172544 -56832 101888 22528 222208 74496 39424 80896 47104 96256 59648 27136 65280 13824 -107008 163840 124928 180992 -7168 9728 -12544 66048 92416 60160 15872 388096 119808 -10496 -54272 59648 -29696 51712 133120 164864 -92672 -44800 162560 45056 77824 53248 36352 374528 131072 92928 30720 18944 79872 18432 -27648 92160 245504 62976 23552 58112 -62720 -86528 141312 -110080 243200 41728 -48384 -92672 4096 37120 -120064 215040 -97792 76288 21504 79360 480256 -129280 130304 -40448 -50432 366848 105984 -33792 8960 -75264 81408 87552 81152 -83200 -17408 210176 111872 184064 352000 318208 19456 -49664 59392 79360 -37888 153088 124672 4352 266752 -10752 130816 45568 -26368 125184 -59392 -66560 77568 54784 36608 113152 98304 38912 217088 102144 17152 358144 -119808 273408 512 19968 -141056 4096 40704 193024 167680 179456 107008 26624 89088 209920 238336 163328 -80384 -55040 96000 -26624 18688 108288 13824 -13312 78080 5120 222976 201984 -86528 96768 230144 -57088 246272 -35072 1280 -20224 65024 85504 151296 148224 37632 22528 87040 -44032 -21760 124416 35072 192512 222464 331264 -22272 96256 13824 -119552 171520 -90112 355584 197888 188672 188160 97536 -133120 53760 223488 -34048 -37632 37888 44544 -19456 182016 330752 -124672 98048 233984 -38656 41728 127744 33792 162304 -78336 122624 257792 -28416 64512 -93184 66304 -25344 17152 350720 141824 295936 35072 157184 -16640 43776 29440 355584 76032 36608 -56576 132352 87552 93696 8704 87552 235008 78080 312576 -64768 155648 45056 117760 144896 337152 42240 55040 185856 -34304 33280 -44800 64768 302592 33536 118272 350464 -37376 157952 321792 27648 144384 55296 -71936 -84992 -62976 -27136 90880 -20992 90112 354816 220160 -55040 51968 73472 67072 58112 90112 -56576 35584 118272 471808 -23040 104704 98816 93696 178176 19200 143104 59136 -125696 162560 137984 -19456 -96512 17920 23040 -26368 129792 276480 112384 174592 37888 287744 -17408 -24576 -154368 -93696 114944 109312 55808 310272 122112 -55808 104448 182272 37632 275712 -31744 -15360 -5888 179456 86784 32768 249088 -90624 103424 194304 -56064 16640 239616 113408 254464 142080 84992 73728 -66304 -42240 -7680 166656 209920 13824 -3328 117504 84992 46080 213248 20480 227328 306688 46336 207872 183040 94464 160000 9472 36608 50176 155648 76800 6656 138496 58880 211712 -34560 66304 53248 106752 142848 -30464 118016 28672 45056 -19456 -3072 -49152 76032 242176 87808 18432 238080 178432 193280 30464 144640 27136 34560 194304 45568 109056 28672 68864 432128 97024 194816 26368 -7168 -1024 10240 27648 -34816 29696 -30720 32768 28672 31744 47104 -5120 -40960 27648 -7168 -1024 25600 40960 2048 37888 -1024 6144 28672 1024 1024 29696 16384 44032 38912 -7168 6144 -2048 0 35840 23552 0 -4096 40960 48128 0 27648 -15360 -8192 -1024 -1024 35840 -3072 -26624 -43008 48128 28672 25600 -21504 18432 1024 2048 94208 0 1024 -4096 -29696 26624 -3072 2048 25600 21504 -2048 29696 27648 2048 -7168 3072 14336 -6144 -2048 -8192 22528 3072 1024 -15360 -1024 28672 38912 27648 24576 -3072 1024 5120 -4096 10240 20480 34816 -43008 -2048 -6144 -8192 0 -14336 -15360 1024 0 2048 -4096 -15360 37888 -10240 5120 -3072 3072 37888 33792 51200 -10240 1024 -3072 29696 1024 0 35840 21504 24576 -2048 -7168 22528 0 -1024 -1024 33792 -5120 -31744 36864 1024 2048 -36864 2048 -4096 -3072 -12288 27648 39936 -2048 -3072 5120 -10240 36864 3072 3072 22528 40960 3072 -14336 0 0 3072 37888 38912 -1024 1024 -5120 3072 -3072 -9216 0 26624 41984 40960 35840 24576 1024 -20480 0 -3072 5120 -4096 23552 -12288 -37888 0 37888 26624 -3072 28672 31744 3072 -7168 -2048 -7168 7168 10240 40960 -2048 0 1024 31744 35840 35840 28672 -3072 -5120 -3072 129024 -20480 38912 7168 2048 0 -23552 -19456 15360 -2048 -23552 55296 3072 7168 1024 -30720 7168 1024 0 -1024 46080 33792 19456 24576 7168 34816 -7168 -3072 43008 -1024 37888 30720 0 -2048 -1024 3072 -2048 2048 18432 -24576 -4096 -4096 34816 7168 0 23552 22528 1024 6144 -6144 -15360 48128 41984 1024 1024 1024 28672 -64512 2048 -1024 -12288 1024 27648 2048 3072 31744 -11264 33792 -7168 30720 26624 24576 0 -1024 1024 5120 18432 -13312 -35840 6144 -4096 41984 -12288 -5120 29696 -7168 -28672 3072 26624 21504 40960 22528 3072 23552 1024 -52224 0 43008 24576 -33792 25600 -8192 41984 22528 0 0 24576 -1024 23552 9216 -4096 2048 21504 -40960 1024 26624 -11264 2048 23552 -4096 11264 -4096 -6144 -2048 39936 6144 4096 -13312 14336 -4096 0 -5120 -3072 -10240 28672 43008 -11264 -46080 25600 23552 -20480 7168 1024 2048 15360 20480 -1024 -1024 -2048 6144 25600 50176 31744 41984 -1024 -15360 3072 -6144 44032 0 23552 -1024 -1024 32768 -14336 5120 44032 38912 14336 -13312 0 50176 -3072 2048 -16384 -1024 1024 -1024 36864 -4096 2048 0 2048 24576 -19456 1024 -2048 -11264 29696 41984 -29696 0 -13312 -2048 -4096 1024 -2048 1024 -1024 2048 1024 -7168 -1024 -2048 -6144 -22528 32768 -1024 25600 -11264 35840 30720 -16384 -8192 37888 -4096 2048 18432 -3072 0 19456 44032 20480 -10240 28672 2048 35840 0 8192 -14336 -1024 52224 -4096 -2048 29696 61440 27648 30720 19456 0 0 8192 -2048 21504 -97280 28672 -4096 54272 36864 -24576 -2048 22528 2048 0 0 2048 31744 0 30720 41984 41984 -1024 -1024 2048 -1024 -2048 1024 -25600 29696 -4096 1024 -1024 62464 -19456 -30720 0 39936 -6144 2048 1024 -3072 2048 24576 52224 9216 4096 2048 -17408 30720 -30720 2048 26624 7168 -1024 4096 -52224 -16384 -8192 1024 46080 45056 11264 4096 -1024 1024 -1024 58368 29696 -5120 1024 14336 1024 2048 -14336 -1024 -1024 1024 26624 2048 0 15360 34816 51200 9216 -1024 -4096 2048 -10240 40960 -19456 1024 2048 33792 3072 -25600 36864 -1024 24576 -10240 6144 25600 2048 48128 22528 41984 -19456 -14336 6144 -11264 -9216 21504 2048 7168 -1024 -18432 2048 1024 -2048 -10240 35840 -1024 26624 -4096 -21504 2048 0 -6144 41984 2048 3072 -2048 36864 24576 24576 2048 26624 -10240 25600 -2048 0 -8192 0 30720 0 36864 28672 1024 -2048 28672 3072 33792 30720 35840 -2048 -1024 27648 46080 -3072 -1024 7168 -3072 0 23552 1024 2048 -17408 22528 3072 0 44032 0 41984 -11264 -8192 2048 27648 -3072 0 36864 12288 -1024 -26624 24576 22528 -2048 27648 47104 36864 1024 23552 -1024 -7168 26624 -1024 2048 -1024 0 0 -9216 0 3072 8192 28672 24576 4096 44032 3072 -2048 28672 44032 -49152 36864 34816 5120 -1024 -26624 -2048 2048 2048 -1024 -1024 -6144 -2048 32768 4096 -17408 26624 -6144 -20480 -23552 49152 4096 -2048 0 -2048 -1024 37888 6144 -8192 32768 44032 1024 0 3072 0 5120 48128 34816 7168 -1024 -19456 -2048 -10240 -1024 35840 -33792 4096 -9216 -3072 31744 13312 -1024 24576 -7168 -2048 -7168 45056 1024 -1024 -5120 -36864 25600 13312 -2048 26624 0 3072 -10240 -1024 21504 31744 1024 -1024 -2048 35840 21504 -10240 -1024 -13312 23552 1024 -9216 2048 25600 -17408 -14336 31744 27648 0 38912 6144 -9216 41984 4096 -7168 -40960 0 28672 5120 -1024 0 24576 -60416 -12288 -11264 -4096 -4096 33792 25600 0 1024 -1024 1024 1024 -1024 -10240 -37888 1024 27648 3072 3072 5120 0 25600 44032 24576 1024 -12288 1024 1024 2048 35840 -1024 31744 -28672 3072 -19456 -1024 36864 3072 44032 0 -37888 37888 39936 11264 41984 53248 2048 0 -6144 -2048 -4096 -11264 4096 39936 1024 -6144 -2048 -50176 53248 2048 -4096 -3072 0 47104 0 56320 -23552 29696 -40960 1024 26624 -15360 28672 25600 9216 0 -1024 26624 -1024 27648 50176 45056 -32768 -10240 1024 41984 41984 36864 0 47104 5120 38912 -1024 14336 3072 25600 -7168 -1024 -14336 0 30720 23552 -1024 3072 25600 4096 1024 23552 23552 -95232 -4096 -21504 3072 27648 7168 -21504 1024 29696 -6144 35840 -6144 2048 36864 -7168 -2048 4096 24576 -66560 26624 -29696 -3072 1024 2048 -2048 54272 1024 -4096 0 2048 -5120 37888 5120 35840 22528 -26624 25600 29696 26624 1024 -2048 2048 29696 -19456 31744 5120 33792 39936 35840 -30720 1024 0 -62464 1024 -27648 -1024 -8192 -9216 -7168 44032 27648 2048 27648 2048 -2048 43008 -14336 0 21504 -1024 38912 8192 43008 -1024 23552 28672 -4096 1024 -1024 26624 -12288 0 47104 -15360 -2048 -29696 0 22528 22528 10240 -8192 5120 26624 1024 0 -31744 37888 1024 0 115968 256 295168 64512 111616 -90880 174336 36608 -59136 187648 306432 -80128 -363520 -181760 174080 73216 41216 -169984 -67584 -94208 -5120 -398592 84480 10240 236032 -150272 89856 -42752 -305664 51456 155648 -224000 -30208 -227840 -100608 -69888 55296 26112 70912 127744 103424 235520 81920 22784 154368 104704 -7936 -11008 -15872 114944 27392 2816 143104 -167680 -198144 -48640 -228864 -108800 14848 -56320 75264 59648 -94464 -137216 -443392 -26112 296192 -46336 -42752 238848 31232 79104 184320 -3584 -20736 30464 97024 181504 49920 -70144 55296 -39168 -369664 287488 -27648 -12032 92416 -54784 30976 2048 -337664 67840 -106240 -33792 50944 -80640 47104 142336 53760 86016 -195840 -172032 59136 -70912 -8960 -247552 -82944 100864 212992 183808 252672 84480 178944 174848 127488 107264 -20224 -69120 -6912 -218112 -83968 154112 5376 94208 68864 -45312 67328 -8960 -10752 64256 -68096 -33024 102912 -29440 -135168 -158720 28416 -131328 15872 -306176 -97792 182528 -125184 -13312 -198656 10240 380672 391168 -176128 -187392 -48384 306944 -84480 -185856 -15104 166912 423936 116736 247552 90112 32064 51072 9920 8192 60800 34304 18624 10240 3456 -3328 4864 52928 3584 57600 34176 19776 5440 8192 29184 31232 28800 28928 22720 7040 25216 4992 46592 9792 69248 8320 24000 62848 6464 53568 -9600 67136 48256 47744 2688 24384 46464 29824 46656 38464 51008 34112 45248 9344 7936 78528 23680 704 55680 32256 66496 11136 -15232 18624 2880 22592 38528 26112 138880 51264 30656 8960 100864 56064 31104 28544 16448 -14272 33920 76224 55936 14720 51776 34752 34944 37824 -3776 30848 43392 42752 -2880 54336 56960 36352 7872 -16512 6592 24064 51584 11776 5440 98112 64384 33152 54656 25664 21888 44736 15360 48256 42496 15744 11904 -5504 15232 141568 35712 -14272 46208 52288 -11264 -6848 23872 4480 37248 43712 24832 15296 46080 59456 2432 45120 13888 -17280 34048 32896 35584 93312 -5056 37120 7296 21504 29376 106496 32448 48256 52992 41984 41152 39296 17280 15360 7168 28224 16448 12672 -11904 28352 9792 52928 60480 17664 45184 19328 52608 5952 5888 25152 42368 9024 1664 13952 15680 117376 29952 33152 -4608 16512 72256 33152 42496 54784 27200 8384 32320 30336 7616 11264 104576 -10112 5824 11584 6272 35968 45888 -1280 38720 10752 25792 31936 28928 1216 1728 17664 2240 18880 25984 38080 59008 41472 6528 67584 112192 15936 16448 20800 24832 37696 25856 24384 57216 -3584 71808 15744 51584 55296 34880 -17472 32448 34048 6784 51008 50816 52288 -6848 37184 8448 43008 6208 28608 -4480 30656 -5568 47424 22080 49216 25920 25984 20608 41152 27968 57344 44032 13440 50944 -3840 6976 23424 39680 25216 32128 14592 47808 92032 33408 6592 25024 69312 65472 36288 9600 60736 27200 -12224 51136 19776 19520 9536 15616 52224 50368 20736 17856 46208 5312 21056 34944 21504 66112 63232 21248 -11392 -9024 13376 43712 30528 44672 19072 51136 33216 22144 20416 36096 16704 -24384 54272 33088 21696 -30336 24576 5312 35840 6400 26688 -11264 52864 41664 -704 55744 61632 35072 40192 22592 14528 8768 58624 35648 32640 -4544 3136 45376 53184 40704 74944 84032 16704 38336 51456 36416 26176 39616 35392 25856 25856 11904 71552 27008 18048 35072 53760 19456 24192 34624 57664 -5568 37568 19456 24960 51136 22208 16128 14144 3072 58048 -14400 52864 16320 55232 -2368 10304 -3392 15424 20608 2688 37696 22272 21888 44352 14400 45568 65984 -7552 16384 36480 3520 30784 80000 130624 23808 19456 11136 60544 4480 4800 47360 32128 46400 59584 114752 73728 19968 19264 26816 10304 10048 -1536 28160 9216 41600 42944 -5440 18432 44736 39296 37952 34240 7040 50432 17344 15040 47360 69760 20096 -7552 7744 16640 50176 6016 42368 60288 40384 0 29696 22528 19840 56704 44096 11584 43392 10816 20096 23744 19968 15040 38592 57152 153536 -2304 43008 -25600 11136 49536 -1536 46464 6144 95808 37312 384 19840 4480 18496 -3776 29120 13760 77568 53184 35648 39680 7808 39872 13376 76224 15936 4352 70464 4800 23552 14144 15488 14912 15168 67136 7744 33024 34240 192 17024 12800 36864 50304 16000 21056 -3136 91904 42688 34688 14784 23104 34560 50880 39040 66560 6208 32128 43456 21568 34560 10496 14400 20352 65024 23360 24960 2304 22208 -3264 26624 26048 13632 31360 37440 12352 82944 20352 91520 46336 20608 70912 21056 16768 42944 43584 14784 65472 41856 45312 13888 82880 36864 43328 1856 54720 35072 59968 -15808 25920 12864 53760 28800 14016 57088 -18688 14208 14144 24768 192 46528 18496 190400 56256 72704 37312 60224 -8768 53248 27648 72128 51136 5696 44800 -17088 50880 25024 3072 29824 33728 -10752 -896 94144 6016 87104 44032 87360 64960 34432 63680 -19584 74240 32960 21440 71616 49216 55872 17600 256 13184 101184 45632 -832 55808 27776 26816 -15232 -27776 46016 15616 40896 21184 29696 27456 3392 54592 69312 64640 32192 21440 -10752 9600 43264 51264 70912 50880 11392 24960 7168 171200 17536 74112 77952 65024 10176 17472 -11392 36992 3904 -320 57920 21952 111104 62784 -27584 76096 29120 30976 29568 28864 20160 8448 512 16512 -36928 45248 -16384 102336 36928 35392 152256 54592 -768 65280 0 63360 25536 3328 53376 71424 13120 20096 31744 52736 -1088 28736 73408 43328 28736 17600 13952 12096 9920 -19008 63040 27008 63360 80192 60352 140864 32448 12352 8000 49216 41792 44288 23296 12288 -16320 20416 46400 14784 9856 3200 43648 18752 16512 18112 64768 28032 -27456 28544 13440 19520 17024 13184 46272 33408 17280 28672 30528 25344 7168 25792 -1408 24704 24704 23168 15360 64576 -5888 53120 24256 6592 1088 -14592 143808 43136 81536 51456 132544 22912 7488 46400 74688 28352 57792 45440 42176 37440 104512 30528 9216 4288 33344 -12096 3968 28352 -6976 67904 60352 47616 24768 26304 78208 39616 33792 -21696 47296 35264 3392 17088 33600 5376 -7936 103936 12672 -192 26240 34560 15296 16512 89344 28224 11200 66240 63296 44288 32448 36160 -3008 -3776 8640 25344 -25536 60224 96960 10496 26304 68928 24640 40192 512 12736 2880 6656 66880 49344 11904 13248 47872 12864 35264 34944 18816 32704 42880 18432 31360 -19904 48064 36864 34816 37760 -4672 25984 12672 67904 43968 10368 1216 27072 5824 26432 47104 18048 -27776 -3520 62848 41088 37824 -1728 31232 86016 20672 16768 25536 -6464 17216 33216 50176 -1792 5696 3136 23680 70720 63808 47168 18944 65856 35328 10560 133888 22336 19264 65280 44544 -10240 39552 18880 62400 -9984 17024 33024 -12096 11456 20160 23552 41088 68160 31488 83456 68096 54144 23616 -9280 57152 18432 1984 2048 30208 9600 -5824 62656 36928 29504 6336 -2496 -16064 16512 25408 31488 45184 43072 27328 39296 143104 31872 91136 6592 -33536 23680 130176 2496 3072 -8896 5824 34048 79488 16384 39744 36032 -33344 101248 29056 96448 63744 50560 58688 17344 73472 20416 44352 40576 34496 66816 -16512 39680 17984 33408 66112 51648 15936 55680 27520 -1856 37248 1792 24320 33088 14272 -19072 7808 74112 35840 5440 23296 23872 48896 -7168 52352 41728 21120 54208 45376 8192 38336 33984 5632 18496 -17408 -48128 2048 70656 -25600 -35840 -40960 -14336 145408 78848 69632 74752 8192 -14336 78848 13312 103424 104448 -7168 71680 71680 7168 -32768 0 33792 5120 90112 131072 -30720 61440 -3072 -6144 10240 -25600 5120 -134144 -103424 -15360 6144 17408 -31744 110592 -15360 -66560 -13312 -2048 -27648 63488 90112 -39936 100352 52224 -33792 26624 -28672 8192 10240 111616 128000 -1024 -21504 -6144 -140288 -16384 -12288 -1024 -15360 -2048 106496 55296 77824 10240 91136 -11264 -6144 63488 -11264 -2048 -4096 -6144 -1024 -26624 -70656 -33792 77824 -40960 -51200 -12288 86016 0 114688 102400 -62464 63488 98304 -156672 -22528 -10240 -47104 -9216 110592 -14336 107520 95232 72704 66560 104448 61440 8192 -115712 -12288 70656 -28672 -14336 137216 94208 4096 16384 -43008 -2048 62464 6144 -12288 -54272 30720 -26624 76800 3072 -5120 188416 87040 -102400 146432 -14336 18432 84992 0 -94208 68608 -24576 -10240 -46080 102400 144384 70656 7168 145408 100352 121856 22528 -1024 -3072 -2048 -82944 -8192 70656 68608 86016 -21504 -10240 74752 -69632 125952 101376 -20480 67584 -3072 -90112 61440 -13312 83968 96256 -57344 75776 -12288 -21504 -4096 87040 64512 -28672 2048 -3072 -44032 78848 94208 75776 73728 107520 -11264 68608 -36864 57344 86016 94208 107520 -5120 92160 -7168 -2048 75776 2048 -29696 -21504 -39936 2048 -31744 -154624 -4096 -2048 -2048 -15360 -22528 89088 105472 -8192 91136 94208 -12288 -6144 -11264 -3072 4096 129024 70656 -5120 95232 62464 -15360 98304 -41984 117760 -10240 10240 103424 88064 108544 81920 -3072 -61440 -10240 -27648 60416 93184 133120 136192 -40960 -10240 78848 82944 13312 77824 4096 -75776 96256 83968 95232 -62464 -105472 173056 145408 -31744 -60416 -27648 126976 115712 -63488 72704 73728 67584 90112 86016 56320 104448 -8192 -9216 67584 26624 -9216 -3072 -3072 90112 -4096 -44032 -13312 82944 0 100352 53248 -14336 80896 -22528 152576 -50176 -1024 -29696 114688 68608 8192 70656 184320 -9216 73728 6144 92160 68608 13312 3072 142336 5120 -10240 -3072 155648 -36864 -17408 -63488 -4096 -22528 63488 75776 -14336 105472 110592 -1024 70656 108544 -17408 14336 -67584 -80896 -58368 -34816 -10240 -23552 72704 -14336 -41984 101376 74752 90112 -15360 2048 -2048 -17408 -21504 -8192 68608 80896 -36864 -3072 -18432 -5120 -19456 -53248 68608 -6144 62464 14336 -29696 62464 -12288 94208 -52224 93184 46080 135168 59392 120832 10240 -28672 -8192 12288 -10240 71680 -7168 -72704 15360 163840 2048 67584 -5120 -132096 -87040 -28672 44032 75776 172032 82944 61440 14336 -12288 -34816 -10240 -63488 -37888 3072 -19456 -11264 3072 73728 78848 68608 56320 96256 -25600 -3072 83968 278528 -55296 -4096 -1024 71680 -4096 134144 5120 -3072 -38912 78848 72704 30720 5120 -29696 0 -22528 -27648 88064 -2048 -5120 -2048 89088 -10240 -30720 138240 -1024 7168 -3072 68608 97280 95232 -11264 121856 -164864 65536 -30720 5120 83968 -7168 -4096 -27648 -8192 -116736 119808 0 -46080 0 64512 9216 -28672 1024 -14336 -27648 77824 84992 167936 -106496 20480 -54272 1024 0 -53248 108544 76800 68608 1024 26624 73728 -43008 111616 99328 -17408 0 3072 13312 79872 -67584 113664 118784 64512 -89088 91136 -11264 -2048 90112 -7168 -1024 91136 -55296 65536 63488 -75776 71680 -23552 90112 132096 -35840 -19456 81920 86016 68608 -2048 8192 72704 84992 123904 39936 104448 -16384 -80896 117760 -56320 -26624 65536 -84992 98304 95232 -24576 -48128 81920 -28672 82944 77824 72704 -4096 100352 -60416 3072 -12288 51200 -46080 83968 -11264 134144 -20480 8192 23552 -47104 9216 75776 -4096 -2048 66560 -16384 68608 -156672 -9216 -81920 73728 -2048 75776 -5120 -11264 -30720 -13312 90112 -8192 11264 98304 36864 0 73728 88064 -1024 -11264 -67584 3072 -39936 -45056 -28672 -4096 157696 -72704 90112 -58368 2048 -9216 -16384 -15360 -55296 95232 89088 8192 -81920 -6144 3072 -51200 99328 0 5120 -5120 -15360 153600 -31744 84992 79872 4096 71680 -8192 -13312 66560 -27648 122880 69632 65536 -4096 -48128 -89088 -5120 74752 77824 74752 -130048 9216 -35840 -87040 -48128 -4096 19456 2048 92160 2048 57344 -9216 -81920 -37888 -56320 -3072 -39936 5120 -37888 28672 -21504 130048 -11264 12288 8192 -1024 -11264 3072 -172032 -9216 69632 -108544 -2048 3072 -16384 4096 -27648 105472 105472 -63488 -37888 -8192 132096 -20480 -37888 118784 56320 -64512 -23552 -13312 73728 178176 10240 62464 -1024 -6144 120832 -6144 -79872 78848 -109568 -12288 70656 -6144 15360 70656 4096 -3072 91136 6144 7168 -8192 125952 154624 80896 7168 71680 -9216 130048 -23552 61440 75776 -9216 6144 87040 10240 32768 -1024 -11264 50176 106496 23552 90112 13312 123904 36864 137216 116736 8192 -6144 -17408 9216 -3072 58368 94208 60416 11264 -73728 -4096 -39936 -14336 -129024 -32768 73728 -14336 -19456 -5120 -7168 -74752 -11264 82944 -84992 87040 13312 12288 -7168 17408 60416 -14336 74752 -5120 -32768 -35840 58368 103424 -40960 -17408 109568 1024 -18432 -6144 83968 -11264 56320 99328 0 -81920 2048 113664 143360 41984 2048 71680 -53248 -7168 -5120 -96256 -10240 -35840 86016 -21504 125952 91136 -15360 126976 3072 -19456 -34816 93184 134144 -74752 67584 80896 -2048 60416 3072 -1024 -23552 -6144 -32768 -7168 -19456 108544 62464 -50176 -10240 176128 -22528 65536 -30720 2048 -22528 -51200 -26624 93184 -2048 0 0 -60416 84992 67584 110592 -23552 87040 -19456 -24576 87040 13312 4096 -81920 -11264 4096 68608 -87040 -72704 40960 122880 -10240 67584 102400 -9216 -38912 4096 62464 90112 5120 -74752 -18432 -9216 91136 -63488 106496 141312 -125952 102400 10240 65536 -13312 53248 -11264 17408 -16384 -25600 64512 76800 3072 64512 73728 -34816 -134144 -48128 3072 -97280 -56320 -13312 -11264 25600 -41984 50176 87040 5120 -1024 73728 68608 -48128 116736 99328 71680 7168 3072 99328 69632 -43008 -28672 -11264 0 -8192 -95232 21504 -52224 103424 5120 124928 -120832 43008 4096 -8192 26624 97280 -66560 140288 69632 -9216 -3072 -154624 3072 -10240 -13312 -3072 -62464 3072 -99328 -15360 -4096 -9216 101376 -44032 5120 -30720 62464 72704 -45056 -35840 43008 -13312 76800 1024 -13312 78848 70656 -34816 74752 6144 89088 -12288 -1024 5120 -7168 81920 -34816 81920 -52224 -5120 113664 -14336 -15360 26624 -4096 -4096 17408 -57344 -30848 -151168 20992 161152 50176 -132736 -75520 115840 18304 9984 103808 20352 176896 -140032 -161280 -79232 1920 237568 81152 94080 80640 135680 18048 -120064 92160 70784 -70528 6912 317568 137856 15616 109568 124800 -81664 61824 2944 -127360 -21120 14080 -9856 90496 -16896 90368 -13056 -11008 -55168 96768 49408 39040 -72320 -62592 -14976 -5888 -16256 -96000 155904 -2944 -119808 -56576 -101504 73344 142720 -47616 33152 99200 37504 50432 -10880 27264 -126592 -146048 10880 13696 24192 -24448 55552 56704 -2176 110720 79360 216064 13568 -93312 -26752 162560 -72704 6272 -155136 24064 115840 -74624 17408 10496 115200 -53760 -86784 -29696 -69760 368256 -10496 140928 31232 -165248 -157696 -85632 -163840 121088 50304 -103296 137728 29440 -9600 -68864 123136 163712 86528 54784 -94720 -78592 -52992 66816 129792 -91136 12672 116608 53888 -41088 -48256 148992 176384 -20864 -87296 253696 -35840 -34688 -181632 -89728 -44032 -2048 -52736 -182016 -163328 60800 54528 -96768 102784 151680 -97920 186880 -128 44160 -59264 19456 63360 -285824 148608 46592 -16512 -23680 16640 37600 8672 5920 -3168 -3520 32 7392 2272 -3968 5280 11584 20448 -128 7968 12384 8000 256 11264 9664 5600 9472 9344 6272 23360 8096 1248 7200 3776 3552 14016 7648 -3072 19808 -1824 23456 1280 11424 -1440 22176 13216 2432 12704 6720 3264 6496 4448 2016 22688 -3680 -1440 7456 4608 8640 9696 13792 2592 -1632 9632 4288 6944 7968 -4736 4768 384 3136 1536 7904 -3264 5472 9632 -2368 3008 6528 2112 -224 8416 8256 -384 256 33888 12896 768 4992 7136 9344 7872 7840 -960 9696 320 2016 12096 -64480 -96 19360 19776 1600 -576 4384 8736 1728 7456 12000 -2048 22880 1888 11520 4832 5760 24320 8064 3488 1568 5408 9824 736 1888 8000 7040 3904 17024 -2656 384 -480 768 2784 1280 832 8160 -3616 -5152 -4384 7744 4000 7072 6400 2528 -2656 -7200 7424 7072 2784 10144 4832 2464 5952 8160 5792 -5344 4576 7520 11520 13184 8032 3040 19456 2720 1600 5984 -2464 4512 1824 1472 -5824 14080 768 16608 5440 14880 7264 -2432 4544 10208 -480 18304 1696 6176 16640 9184 2912 -1472 9920 3584 3776 10976 10144 -1568 5984 3392 -128 0 10336 2976 8384 9312 8192 6912 7744 7872 10176 3008 1408 56320 6464 4000 4544 10240 5728 576 -2272 -2176 7648 2176 1120 5824 -3456 11680 1216 10816 3744 8736 9536 4096 5216 1920 10560 3520 23168 16896 4224 8256 11360 -2944 14400 2048 5920 5088 4128 1856 -2240 4704 -4768 8512 4704 5376 2400 2816 1280 3840 -3936 12256 3872 9920 2912 10976 10944 9856 9216 3104 3680 9856 20384 2240 23744 7968 1504 19040 5696 6880 640 7488 8960 20064 3072 9952 8256 7584 5952 6176 12608 20928 2656 7712 4832 7648 -2112 7296 5248 -2464 4576 -4736 15008 12608 11680 2528 9824 5856 -1152 7840 5408 13408 896 -2080 1952 4416 -864 14080 768 -3936 4000 3680 3808 13984 4864 736 3808 1888 -256 5920 4000 11360 1888 1632 10560 3232 20000 9440 4832 9120 1056 31520 7040 9760 13952 15200 12576 13984 448 -2880 8864 896 3872 5856 6560 -2304 13920 1792 -4992 6592 2112 -10720 -224 10016 5856 15040 12192 9984 5344 10176 7904 1216 -928 12512 6272 1152 4576 4512 18464 4832 12928 105760 4416 9920 18752 -1344 1920 1664 8064 1504 5728 -5504 3552 320 15552 19200 1504 8512 576 7712 5536 5024 21856 -12640 -288 6048 -2176 5600 1568 6496 -928 7872 17792 12160 -25632 -480 -1888 544 4480 2720 6592 17472 3008 17728 6048 7392 23808 16672 8224 15008 -672 5344 16992 10112 -3072 11616 3680 3520 -1120 -1792 11520 5280 7680 -640 2720 7040 960 11904 2144 15744 22016 20448 -992 352 9728 8512 -5536 24736 3008 7648 21408 12224 1312 5792 5344 12864 20864 9760 -5248 1536 7264 4640 9408 24160 -3360 -32 16128 -2624 2976 11712 416 2656 6304 -7104 1312 1184 2464 4160 3776 5152 1568 16096 1472 4832 -4224 7488 8512 8224 4416 1088 20320 8192 -1792 7872 18240 7648 4608 16928 6784 1472 -2752 -1920 28640 10400 16032 -800 9472 -6240 22016 -928 10304 960 13664 1760 1888 -5888 4416 13152 9536 28416 10560 6144 5344 6144 12800 7296 1600 9184 -3168 -3936 4064 7712 31904 2048 -8512 2816 -4640 9344 5536 3616 30016 3680 12544 28288 4544 1760 4128 14112 10304 -8352 2368 128 8256 17568 3744 6880 9984 896 4352 13888 12864 3456 448 20000 4768 -2016 16704 -3616 1824 5824 13024 -6496 6912 736 -1856 1088 992 6592 4448 6080 6624 8256 -1536 3584 1504 -4512 1792 352 -1216 6016 32 5024 -3072 12320 2240 1024 11456 2240 4416 13664 288 3904 4448 4448 2464 -5728 12320 2656 7104 -3136 -2912 -320 6496 3904 1920 -224 7808 20448 7072 12128 14720 3200 4608 10816 15072 6112 2784 13312 24096 17216 -2336 9152 -64 -1056 2560 17696 9760 5760 17952 6624 3840 2048 6304 6560 1440 5568 8192 -2784 3552 6816 2240 8544 -2176 6592 12448 -2624 -1024 4096 9984 1760 1088 -3328 -160 8768 4672 9120 4864 -1248 11712 384 19552 8352 -3872 -4736 896 3648 -2688 -15488 17664 21888 7136 51040 11904 6496 9280 8160 8256 1376 15168 9024 -4192 9472 24288 192 3680 2976 52160 4320 12640 2272 320 6592 4576 -4064 8032 -8288 4544 3232 7264 15936 4512 -7552 3808 5056 18240 8640 1184 2720 7040 -128 7904 -5664 25760 12704 -96 8544 7552 14688 13088 11328 -2048 864 3232 -288 10624 10304 4640 608 -20992 5376 2464 2336 -7040 3936 1344 8960 5184 2304 8544 -1216 -2336 4416 9984 6240 -7104 7328 4480 8224 -2784 -1056 2496 6080 8992 4704 16320 1216 3872 11296 6112 3808 32288 -4320 -4416 9024 11616 -896 928 2176 2464 -3584 -2944 17568 6656 416 4288 3392 1056 -2144 1376 -4288 5184 12192 8704 8864 192 -1184 2880 16000 11840 1792 14592 18752 4256 6784 -8896 14080 9440 10048 14112 -5344 16064 1024 16576 -7232 8416 4512 7840 11808 4864 -1312 3712 4576 20608 16000 6816 -320 2432 13056 -1248 992 9184 -896 24160 1440 8256 14208 5344 1312 4032 5536 12256 5408 8672 17728 1408 7936 4416 3552 10816 12544 5856 19328 13472 7392 2944 -2848 -2880 3776 8704 992 7488 10048 7232 7616 -320 -384 13728 0 5952 -448 6112 16384 1056 7552 4320 11648 288 4992 2944 9568 6048 9152 14304 17184 28352 9536 2560 2688 4704 -256 1728 9248 4192 6080 5600 6528 -1216 19040 13760 -3072 3040 -1504 4704 11552 -1728 10336 1600 25696 6720 6112 -448 7040 19456 608 15840 800 19136 -32 960 6752 2240 10880 12960 2336 5536 9312 4704 7616 4544 5536 -2016 19744 23072 -6720 -96 6208 -4032 2176 15616 1536 16064 2912 17440 -2432 1792 6944 10400 5792 10624 3840 6624 5088 4800 2304 896 11200 5120 3488 41920 6144 9280 270336 311296 -8192 -8192 -12288 0 0 -4096 -8192 -40960 303104 270336 -8192 -12288 -45056 -8192 0 -8192 -16384 -4096 -12288 290816 -8192 409600 176128 -8192 -8192 -12288 262144 290816 0 -4096 311296 -4096 278528 -12288 -12288 0 262144 274432 0 -12288 278528 -4096 274432 135168 -4096 192512 204800 -4096 274432 0 -4096 -8192 278528 -4096 258048 286720 -16384 -12288 266240 0 294912 -4096 -16384 0 299008 -8192 286720 294912 270336 0 0 -12288 8192 -4096 0 274432 -8192 499712 348160 -4096 -4096 0 -12288 -12288 0 278528 180224 270336 8192 294912 225280 -12288 192512 294912 -8192 -12288 282624 253952 -4096 0 0 -8192 266240 323584 253952 245760 0 237568 -12288 225280 -4096 282624 -16384 -4096 -8192 -8192 0 0 245760 212992 303104 290816 4096 278528 -4096 253952 -8192 0 -4096 -8192 -8192 0 299008 -16384 -8192 221184 8192 266240 196608 290816 -20480 -4096 286720 167936 176128 -12288 282624 -16384 -8192 -8192 -20480 -12288 -8192 262144 286720 0 278528 0 286720 180224 -12288 -4096 -12288 290816 249856 249856 -12288 -4096 167936 294912 4096 262144 200704 270336 258048 208896 -16384 8192 229376 -20480 -8192 -4096 245760 -4096 270336 -4096 -4096 270336 -8192 0 286720 -4096 -12288 -8192 266240 303104 -8192 -8192 0 -24576 323584 -20480 -8192 -4096 -12288 -8192 -4096 0 282624 -12288 -12288 -4096 262144 4096 225280 -12288 286720 278528 274432 274432 286720 184320 204800 -4096 258048 274432 262144 -8192 4096 188416 299008 233472 -4096 -8192 12288 8192 0 4096 0 -4096 -8192 282624 307200 -8192 -4096 -4096 -8192 204800 225280 8192 -12288 8192 -12288 -4096 -8192 -8192 -8192 -24576 290816 282624 286720 315392 286720 -8192 274432 0 282624 0 -8192 -32768 278528 -16384 -4096 -12288 -12288 258048 258048 270336 303104 0 -24576 8192 0 -4096 -8192 241664 -4096 303104 -4096 294912 208896 -4096 262144 286720 167936 -4096 167936 -12288 249856 274432 4096 299008 196608 4096 270336 -4096 4096 0 -16384 -8192 274432 286720 212992 -4096 0 0 -8192 237568 -4096 258048 4096 147456 282624 274432 0 258048 8192 286720 290816 -16384 -16384 303104 237568 266240 -4096 -36864 -8192 270336 -12288 339968 249856 237568 -12288 253952 0 12288 303104 -4096 8192 249856 282624 -12288 241664 -16384 -12288 303104 -4096 -4096 249856 4096 294912 274432 -12288 282624 -8192 245760 0 266240 147456 -8192 311296 -16384 -4096 -4096 -4096 237568 249856 286720 8192 274432 0 303104 290816 -4096 -20480 4096 -8192 -4096 -24576 331776 12288 184320 -16384 262144 -12288 237568 -8192 4096 192512 282624 -8192 8192 282624 0 290816 299008 -4096 -45056 303104 245760 -8192 -8192 -12288 237568 208896 303104 -8192 -8192 278528 274432 -16384 8192 270336 180224 -12288 -8192 8192 176128 258048 262144 -8192 -4096 266240 -12288 278528 -8192 -12288 278528 221184 -12288 0 0 253952 -8192 335872 -12288 0 200704 -8192 -8192 266240 -4096 286720 253952 0 159744 4096 -28672 -4096 294912 286720 -16384 307200 323584 8192 -12288 -12288 8192 -4096 286720 266240 -20480 -12288 -8192 225280 286720 0 0 -4096 -8192 262144 0 278528 -16384 -8192 -4096 4096 258048 -8192 180224 282624 184320 290816 274432 303104 241664 229376 258048 -8192 360448 -28672 212992 204800 -4096 4096 180224 188416 282624 0 245760 -4096 -4096 12288 282624 -12288 0 315392 221184 241664 -4096 0 274432 303104 -4096 -12288 282624 266240 274432 237568 -118784 -12288 303104 0 278528 -16384 -4096 -20480 274432 -8192 -20480 397312 -4096 -12288 221184 196608 274432 212992 0 262144 -4096 188416 -12288 -16384 0 -4096 -4096 327680 262144 294912 8192 278528 -8192 -4096 286720 0 -16384 163840 -24576 4096 -4096 4096 -4096 -8192 -8192 -4096 262144 299008 -8192 290816 -4096 -24576 270336 -8192 274432 249856 -8192 -4096 8192 -12288 -8192 315392 -8192 -4096 274432 -8192 -8192 200704 0 -4096 0 0 -12288 0 299008 282624 -16384 167936 4096 266240 -4096 278528 4096 286720 327680 319488 4096 0 -20480 -12288 278528 -4096 -8192 286720 8192 -8192 475136 344064 294912 -12288 212992 -4096 8192 -12288 290816 -4096 278528 -4096 -4096 282624 270336 -4096 -12288 0 -20480 -20480 -4096 4096 8192 -16384 274432 176128 -4096 -4096 0 -16384 180224 -4096 -4096 221184 -12288 -16384 282624 176128 290816 -20480 -16384 -12288 237568 270336 -4096 245760 -4096 -8192 -12288 16384 233472 -12288 274432 -28672 -12288 -4096 290816 -16384 249856 270336 192512 262144 8192 286720 266240 -16384 -12288 16384 589824 -4096 225280 -4096 -4096 -16384 -8192 270336 188416 0 0 -4096 -12288 266240 0 4096 -4096 286720 192512 -16384 -8192 0 -16384 -4096 -16384 225280 282624 299008 0 286720 -12288 192512 274432 -4096 0 258048 180224 0 348160 -12288 274432 -4096 16384 282624 -4096 -8192 245760 0 -4096 163840 -16384 0 -8192 217088 -8192 4096 -12288 286720 12288 303104 -4096 -4096 -16384 4096 -8192 159744 -8192 286720 20480 -4096 -8192 -8192 -16384 -8192 233472 -4096 0 286720 311296 303104 -4096 -16384 -8192 4096 0 229376 192512 -4096 270336 -12288 258048 -8192 -8192 274432 -12288 -4096 -12288 286720 282624 290816 172032 290816 -12288 -8192 274432 270336 -8192 163840 151552 -8192 4096 249856 237568 286720 299008 -4096 225280 225280 -16384 8192 307200 155648 4096 -12288 -12288 -8192 294912 -12288 212992 303104 -8192 -8192 -8192 -12288 -12288 -8192 249856 4096 258048 200704 -12288 12288 -4096 -8192 -16384 -16384 -8192 262144 0 -12288 -8192 274432 4096 409600 -8192 311296 -4096 -12288 -8192 12288 208896 -16384 -12288 -8192 278528 0 208896 327680 0 0 266240 -12288 303104 -8192 274432 253952 -4096 -16384 155648 290816 -8192 -12288 -4096 303104 -12288 -20480 266240 290816 315392 -8192 -12288 286720 -12288 262144 -8192 -8192 -8192 282624 4096 -12288 241664 172032 307200 -4096 -8192 -4096 -4096 0 -12288 274432 4096 274432 8192 -4096 8192 286720 172032 -8192 290816 -8192 319488 -4096 270336 155648 307200 266240 278528 -4096 -8192 -4096 -8192 245760 -8192 4096 -8192 159744 303104 270336 12288 241664 -20480 274432 262144 286720 -8192 270336 208896 -12288 0 315392 -12288 -4096 -12288 -4096 -12288 -16384 0 172032 0 282624 -4096 8192 286720 -4096 -12288 -907264 120832 499712 897024 -608256 20480 1034240 30720 464896 75776 129024 77824 -233472 382976 -454656 -323584 -67584 -59392 -147456 376832 215040 -212992 -274432 632832 182272 -446464 -221184 -1400832 454656 1073152 -811008 -503808 1513472 1431552 395264 -393216 -489472 -432128 694272 -2048 43008 337920 -131072 -483328 -18432 -262144 -794624 -659456 -311296 118784 374784 972800 110592 -1409024 -1871872 546816 264192 94208 897024 667648 290816 -81920 468992 -655360 618496 -786432 610304 -423936 -24576 -188416 73728 -292864 -430080 -251904 14336 440320 1005568 536576 227328 794624 487424 -157696 1107968 616448 350208 -370688 380928 806912 378880 432128 423936 167936 -65536 -208896 57344 479232 1019904 710656 -1251328 -266240 378880 210944 -659456 286720 30720 -53248 751616 -16384 34816 292864 -600064 139264 372736 831488 745472 -12288 -352256 763904 -339968 223232 -169984 395264 -81920 -331776 722944 225280 -546816 948224 -243712 477184 964608 106496 -280576 -67584 -565248 430080 163840 -475136 716800 -360448 -73728 -821248 208896 -763904 -432128 -927744 -540672 -147456 -305152 495616 827392 -550912 194560 10240 243712 718848 -559104 157696 -116736 952320 -1101824 -362496 -110592 595968 -337920 493568 931840 -301056 342016 -282624 165888 413696 -761856 -342016 370688 126976 -710656 -614400 1009664 194560 -194560 -1206272 -571392 122880 -651264 485376 694272 321536 98304 -71680 -399360 -116736 1097728 -694272 65536 862208 395264 -229376 -391168 -995328 677888 -485376 -47104 -264192 536576 -319488 872448 -632832 1161216 102400 931840 